tree
version=v3
num_class=1
num_tree_per_iteration=1
label_index=0
max_feature_idx=13
objective=regression
feature_names=age skills java maven git sql hibernate spring oop student education_level total_experience skill_set rubbish
feature_infos=[0:58] none none none none none none none none none -1:2:6:0:5:4:3 [0:337] -1:0:294:334:364:406 [0:28]
tree_sizes=1477 1535 1453 1630 1541 1444 1547 1629 1547 1457

Tree=0
num_leaves=16
num_cat=0
split_feature=0 0 0 0 13 0 11 0 11 11 11 0 0 11 13
split_gain=0.346155 0.0776733 0.055225 0.128421 0.0157993 0.0131332 0.00639292 0.00936739 0.00585675 0.00196078 0.00480208 0.00137755 0.00130876 0.00127976 2.81184e-05
threshold=32.500000000000007 17.500000000000004 34.500000000000007 38.500000000000007 2.5000000000000004 30.500000000000004 11.500000000000002 20.500000000000004 3.5000000000000004 30.500000000000004 72.500000000000014 22.500000000000004 26.500000000000004 2.5000000000000004 1.0000000180025095e-35
decision_type=2 2 2 2 2 2 2 2 2 2 2 2 2 2 2
left_child=1 -1 -2 -4 5 6 7 14 11 -8 -11 -9 13 -6 -3
right_child=2 4 3 -5 12 -7 9 8 -10 10 -12 -13 -14 -15 -16
leaf_value=0.038081594188164522 0.045581594070197004 0.032510165559437441 0.034125072467282615 0.045081594193131583 0.032033975098325521 0.035312363476054875 0.03166982938820033 0.03536730844585044 0.032820724573168619 0.033495387325611428 0.031536139574525876 0.034295879938283987 0.032235440310297951 0.031081594096274031 0.032371916708163563
leaf_weight=30 20 28 23 20 21 26 34 21 23 29 22 28 26 43 31
leaf_count=30 20 28 23 20 21 26 34 21 23 29 22 28 26 43 31
internal_value=0.0345351 0.0332087 0.0412403 0.0392211 0.0327683 0.033189 0.0329334 0.0333717 0.0341371 0.0322581 0.0326502 0.0347551 0.0316371 0.0313941 0.0324375
internal_weight=0 362 63 43 332 242 216 131 72 85 51 49 90 64 59
internal_count=425 362 63 43 332 242 216 131 72 85 51 49 90 64 59
shrinkage=1


Tree=1
num_leaves=16
num_cat=0
split_feature=0 0 0 0 13 0 11 11 0 13 11 11 13 13 0
split_gain=0.280386 0.0629154 0.0447322 0.104021 0.0128511 0.0131416 0.00732629 0.00580148 0.00541623 0.00541455 0.00262799 0.0032922 0.000783172 0.000367669 5.44512e-05
threshold=32.500000000000007 17.500000000000004 34.500000000000007 38.500000000000007 1.0000000180025095e-35 29.500000000000004 3.5000000000000004 11.500000000000002 20.500000000000004 2.5000000000000004 57.500000000000007 88.000000000000014 1.5000000000000002 5.5000000000000009 22.500000000000004
decision_type=2 2 2 2 2 2 2 2 2 2 2 2 2 2 2
left_child=1 -1 -2 -4 5 7 9 8 -3 -6 12 -12 -8 -14 -10
right_child=2 4 3 -5 6 -7 10 -9 14 -11 11 -13 13 -15 -16
leaf_value=0.0031918407728274666 0.0099418409168720249 -0.0018224450759589672 -0.00036902889285398566 0.0094918405264616014 -0.00054670991592629015 0.0013666216122067494 -0.0024151948694553643 -0.0023463090443435839 -0.0001306380189600445 -0.0023973902314901353 -0.0009913773021914742 -0.0027641034312546257 -0.0031935277051831547 -0.002679837766018781 9.9915154278278366e-05
leaf_weight=30 20 28 23 20 43 23 36 34 21 25 22 20 38 22 20
leaf_count=30 20 28 23 20 43 23 36 34 21 25 22 20 38 22 20
internal_value=0 -0.00119379 0.0060347 0.00421742 -0.00159009 -0.00079457 -0.00207667 -0.00127717 -0.000750341 -0.00122711 -0.00249529 -0.00183553 -0.00278393 -0.00300517 -1.81731e-05
internal_weight=0 362 63 43 332 126 206 103 69 68 138 42 96 60 41
internal_count=425 362 63 43 332 126 206 103 69 68 138 42 96 60 41
shrinkage=0.1


Tree=2
num_leaves=15
num_cat=0
split_feature=0 0 13 13 0 11 0 11 11 11 13 0 0 13
split_gain=0.227112 0.0509615 0.0396428 0.0104879 0.00947259 0.00412533 0.00687449 0.00396737 0.00155959 0.00402947 0.00125689 0.0011647 0.00067116 6.85338e-05
threshold=32.500000000000007 17.500000000000004 1.0000000180025095e-35 2.5000000000000004 30.500000000000004 11.500000000000002 20.500000000000004 3.5000000000000004 72.500000000000014 30.500000000000004 6.5000000000000009 22.500000000000004 24.500000000000004 1.0000000180025095e-35
decision_type=2 2 2 2 2 2 2 2 2 2 2 2 2 2
left_child=1 -1 -2 4 5 6 13 11 9 -7 12 -8 -5 -3
right_child=2 3 -4 10 -6 8 7 -9 -10 -11 -12 -13 -14 -15
leaf_value=0.0028726566955447198 0.0086289337060103822 -0.0016402005084923338 0.0034634090291383937 -0.0023630562091344282 0.00071497593934719385 -0.0023333995383890238 0.00077393498449098504 -0.0013810722562281983 -0.0025727812962775881 -0.00072884000195511459 -0.0029088080395013095 -0.00021124790821756636 -0.0016875780653208495 -0.0018560338765382768
leaf_weight=30 24 28 39 38 26 34 21 23 22 29 28 28 24 31
leaf_count=30 24 28 39 38 26 34 21 23 22 29 28 28 24 31
internal_value=0 -0.00107442 0.00543123 -0.00143108 -0.00108832 -0.00130538 -0.000953356 -0.000297597 -0.00184792 -0.00159479 -0.00235272 0.000210973 -0.00210158 -0.0017536
internal_weight=0 362 63 332 242 216 131 72 85 63 90 49 62 59
internal_count=425 362 63 332 242 216 131 72 85 63 90 49 62 59
shrinkage=0.1


Tree=3
num_leaves=17
num_cat=0
split_feature=0 0 0 0 13 0 11 11 13 0 0 13 0 13 0 11
split_gain=0.183961 0.0412788 0.0365634 0.0841715 0.00906059 0.00992914 0.00559843 0.00402523 0.00367497 0.00361208 0.00214992 0.00190898 0.000398513 0.000356701 7.34885e-05 3.66488e-05
threshold=32.500000000000007 17.500000000000004 34.500000000000007 38.500000000000007 1.0000000180025095e-35 29.500000000000004 3.5000000000000004 11.500000000000002 2.5000000000000004 20.500000000000004 30.500000000000004 1.5000000000000002 25.500000000000004 5.5000000000000009 22.500000000000004 31.500000000000004
decision_type=2 2 2 2 2 2 2 2 2 2 2 2 2 2 2 2
left_child=1 -1 -2 -4 5 7 8 9 -6 -3 11 12 -8 15 -11 -13
right_child=2 4 3 -5 6 -7 10 -9 -10 14 -12 13 -14 -15 -16 -17
leaf_value=0.0025853909055391948 0.0084205223619937906 -0.0014761806133070164 -0.00088059623604235448 0.0079896944947540766 -0.00039334181956080509 0.0012585610475229182 -0.0014144858514720743 -0.0019300411893602683 -0.0019180173054337503 -0.00013339602876277198 -0.0011308248731352036 -0.0026380872712112391 -0.0020098084745847661 -0.0022529760805460124 0.00013444483280181886 -0.0028181431256234647
leaf_weight=30 20 28 23 20 43 23 22 34 25 21 21 26 23 26 20 20
leaf_count=30 20 28 23 20 43 23 22 34 25 21 21 26 23 26 20 20
internal_value=0 -0.000966974 0.00488811 0.00324512 -0.00128797 -0.00062 -0.00169654 -0.00103948 -0.000953884 -0.000600659 -0.00206248 -0.0022297 -0.00171876 -0.00254903 -2.74195e-06 -0.00271637
internal_weight=0 362 63 43 332 126 206 103 68 69 138 117 45 72 41 46
internal_count=425 362 63 43 332 126 206 103 68 69 138 117 45 72 41 46
shrinkage=0.1


Tree=4
num_leaves=16
num_cat=0
split_feature=0 0 13 13 11 0 11 13 11 0 11 11 11 11 0
split_gain=0.149008 0.0334358 0.0323322 0.00733908 0.00816078 0.0075247 0.00453473 0.00349471 0.00247379 0.0021278 0.0018733 0.00277914 0.000813428 0.0017174 0.000455213
threshold=32.500000000000007 17.500000000000004 1.0000000180025095e-35 1.0000000180025095e-35 5.5000000000000009 29.500000000000004 3.5000000000000004 1.5000000000000002 28.500000000000004 20.500000000000004 57.500000000000007 88.000000000000014 12.500000000000002 22.500000000000004 25.500000000000004
decision_type=2 2 2 2 2 2 2 2 2 2 2 2 2 2 2
left_child=1 -1 -2 4 9 8 7 -5 -6 -3 12 -12 -8 -14 -15
right_child=2 3 -4 6 5 -7 10 -9 -10 -11 11 -13 13 14 -16
leaf_value=0.0023268518721063932 0.0072871410443137094 -0.0020163931918364985 0.0026221584337644092 -0.0015967877017277661 0.00029298564419150353 0.0018629714660346509 -0.0025423781432468316 -0.00016239211495433536 -0.0012610075817931267 -0.00085535109239189249 -0.00052361114966598425 -0.0021523584891110659 -0.001230738894082606 -0.0019536414050630164 -0.0026045509275387634
leaf_weight=30 24 27 39 33 20 20 29 35 21 38 22 20 24 21 22
leaf_count=30 24 27 39 33 20 20 29 35 21 38 22 20 24 21 22
internal_value=0 -0.000870276 0.00439929 -0.00115917 -0.000558 0.000272754 -0.00152688 -0.000858496 -0.000502962 -0.00133763 -0.00185623 -0.00129921 -0.00209993 -0.00190842 -0.00228666
internal_weight=0 362 63 332 126 61 206 68 41 65 138 42 96 67 43
internal_count=425 362 63 332 126 61 206 68 41 65 138 42 96 67 43
shrinkage=0.1


Tree=5
num_leaves=15
num_cat=0
split_feature=0 11 0 11 11 13 0 0 0 0 0 11 0 0
split_gain=0.0583064 0.144218 0.0321766 0.0387271 0.00913859 0.00770652 0.0192012 0.00568551 0.005431 0.00190303 0.00179176 0.00173586 0.000820994 0.0017204
threshold=29.500000000000004 47.500000000000007 31.500000000000004 149.50000000000003 2.5000000000000004 1.0000000180025095e-35 21.500000000000004 27.500000000000004 19.500000000000004 20.500000000000004 24.500000000000004 107.00000000000001 22.500000000000004 20.500000000000004
decision_type=2 2 2 2 2 2 2 2 2 2 2 2 2 2
left_child=4 -2 -3 11 8 6 -6 9 -1 -7 -11 -4 13 -10
right_child=1 2 3 -5 5 7 -8 -9 12 10 -12 -13 -14 -15
leaf_value=-0.0010559251032224515 0.0095834800694137821 0.0033331327641812655 -0.0019510147121289503 0.0020529101478556793 0.0019558510621604714 -0.0027266450159783876 -0.0017636150494217873 -0.00028231303491022279 1.0082920392354331e-05 -0.0013044564722058101 -0.0023423739869532913 -0.0031796080748672075 -0.00015714102951080902 0.0010810338954130808
leaf_weight=41 20 26 23 30 23 28 35 23 30 39 29 23 23 30
leaf_count=41 20 26 23 30 23 28 35 23 30 39 29 23 23 30
internal_value=0 0.00181897 0.000296514 -0.000742329 -0.000772616 -0.00123381 -0.000288654 -0.00169447 -0.000114304 -0.0020328 -0.0017471 -0.00256531 0.000350834 0.000545558
internal_weight=0 122 102 76 301 177 58 119 124 96 68 46 83 60
internal_count=423 122 102 76 301 177 58 119 124 96 68 46 83 60
shrinkage=0.1


Tree=6
num_leaves=16
num_cat=0
split_feature=0 11 0 11 13 11 11 0 0 13 13 11 0 11 11
split_gain=0.0472282 0.116816 0.0260631 0.031369 0.00748418 0.0068418 0.00601361 0.00702244 0.00580295 0.00379283 0.00297409 0.00232428 0.00208696 0.00140605 0.00043429
threshold=29.500000000000004 47.500000000000007 31.500000000000004 149.50000000000003 2.5000000000000004 2.5000000000000004 17.500000000000004 22.500000000000004 19.500000000000004 1.0000000180025095e-35 1.0000000180025095e-35 51.500000000000007 21.500000000000004 107.00000000000001 17.500000000000004
decision_type=2 2 2 2 2 2 2 2 2 2 2 2 2 2 2
left_child=4 -2 -3 13 5 8 10 -8 -1 12 -7 -9 -10 -4 -6
right_child=1 2 3 -5 14 6 7 11 9 -11 -12 -13 -14 -15 -16
leaf_value=-0.00089860257664413172 0.0086251317895948889 0.0029998195071059925 -0.0017559131445444151 0.0018476191100974878 -0.0017987499013543129 -0.0008980413817841074 0.0012173898961572421 -0.0015909939176506468 0.00079832735160986583 0.0016975286602973938 -0.0024327260309032032 -0.00022300177294275037 -0.00056672002233210063 -0.0028616472592820296 -0.0013204903126909184
leaf_weight=33 20 26 23 30 37 23 21 27 24 25 28 23 21 23 39
leaf_count=33 20 26 23 30 37 23 21 27 24 25 28 23 21 23 39
internal_value=0 0.00163707 0.000266863 -0.000668096 -0.000695355 -0.000405551 -0.000912229 -0.000317193 0.000194593 0.000709956 -0.00174061 -0.000961718 0.000161305 -0.00230878 -0.00155333
internal_weight=0 122 102 76 301 225 122 71 103 70 51 50 45 46 76
internal_count=423 122 102 76 301 225 122 71 103 70 51 50 45 46 76
shrinkage=0.1


Tree=7
num_leaves=17
num_cat=0
split_feature=0 11 0 11 11 13 0 0 13 0 13 0 0 11 11 11
split_gain=0.0382548 0.0946211 0.0211111 0.0254089 0.00608639 0.00531623 0.014733 0.00435898 0.00422947 0.00470039 0.00307219 0.00169044 0.00154305 0.00136456 0.00385662 0.0011389
threshold=29.500000000000004 47.500000000000007 31.500000000000004 149.50000000000003 2.5000000000000004 1.0000000180025095e-35 21.500000000000004 27.500000000000004 2.5000000000000004 19.500000000000004 1.0000000180025095e-35 21.500000000000004 19.500000000000004 34.500000000000007 16.500000000000004 107.00000000000001
decision_type=2 2 2 2 2 2 2 2 2 2 2 2 2 2 2 2
left_child=4 -2 -3 15 8 6 -6 12 9 -1 11 -11 -7 14 -14 -4
right_child=1 2 3 -5 5 7 -8 -9 -10 10 -12 -13 13 -15 -16 -17
leaf_value=-0.00080874214569727574 0.0077626187726855291 0.0026998373823097117 -0.001580321926461614 0.001662857128928105 0.0017488972243407499 -0.0024625760689377784 -0.0015091814579708237 -0.00014831384886866033 -0.001381999378403028 0.00071849454349527761 0.0015277757793664933 -0.00051004820991130105 -0.0019483098228062904 -0.0020629884173663762 -0.0001790246248922565 -0.0025754825576491981
leaf_weight=33 20 26 23 30 23 20 35 23 21 24 25 21 28 26 22 23
leaf_count=33 20 26 23 30 23 20 35 23 21 24 25 21 28 26 22 23
internal_value=0 0.00147336 0.000240176 -0.000601287 -0.000625819 -0.00100219 -0.000217185 -0.0013848 -8.85744e-05 0.000175134 0.000638961 0.000145175 -0.00168105 -0.00147538 -0.00116982 -0.0020779
internal_weight=0 122 102 76 301 177 58 119 124 103 70 45 96 76 50 46
internal_count=423 122 102 76 301 177 58 119 124 103 70 45 96 76 50 46
shrinkage=0.1


Tree=8
num_leaves=16
num_cat=0
split_feature=0 11 0 11 11 13 0 0 13 13 0 11 11 11 0
split_gain=0.0309864 0.0766431 0.0171 0.0205812 0.00492997 0.00430615 0.0119337 0.00353077 0.00342587 0.00410486 0.00124987 0.00110529 0.00312386 0.000922506 4.13679e-05
threshold=29.500000000000004 47.500000000000007 31.500000000000004 149.50000000000003 2.5000000000000004 1.0000000180025095e-35 21.500000000000004 27.500000000000004 2.5000000000000004 1.0000000180025095e-35 19.500000000000004 34.500000000000007 16.500000000000004 107.00000000000001 20.500000000000004
decision_type=2 2 2 2 2 2 2 2 2 2 2 2 2 2 2
left_child=4 -2 -3 13 8 6 -6 10 9 14 -7 12 -12 -4 -1
right_child=1 2 3 -5 5 7 -8 -9 -10 -11 11 -13 -14 -15 -16
leaf_value=-0.00028519846739307527 0.0069863569363951689 0.002429853823895638 -0.0014222896698376408 0.0014965714265902839 0.0015740076160949213 -0.0022163184732198714 -0.0013582633329289303 -0.00013348246398179429 -0.0012437994370148296 0.00091842107829593483 -0.0017534788232296706 -0.0018566895670329151 -0.00016112211583690212 -0.0023179342403360035 -0.00044992179920276006
leaf_weight=31 20 26 23 30 23 20 35 23 21 42 28 26 22 23 30
leaf_count=31 20 26 23 30 23 20 35 23 21 42 28 26 22 23 30
internal_value=0 0.00132603 0.000216159 -0.000541158 -0.000563237 -0.000901975 -0.000195466 -0.00124632 -7.9717e-05 0.00015762 -0.00151294 -0.00132784 -0.00105284 -0.00187011 -0.00036621
internal_weight=0 122 102 76 301 177 58 119 124 103 96 76 50 46 61
internal_count=423 122 102 76 301 177 58 119 124 103 96 76 50 46 61
shrinkage=0.1


Tree=9
num_leaves=15
num_cat=0
split_feature=0 11 11 13 11 11 13 0 11 11 0 11 11 0
split_gain=0.0285944 0.0763133 0.0203789 0.0120733 0.0310265 0.00533083 0.00486115 0.00384477 0.0023959 0.00602721 0.00242371 0.00239233 0.00157298 0.000702133
threshold=32.500000000000007 97.500000000000014 149.50000000000003 1.0000000180025095e-35 79.000000000000014 2.5000000000000004 2.5000000000000004 20.500000000000004 51.500000000000007 72.500000000000014 25.500000000000004 17.500000000000004 18.500000000000004 22.500000000000004
decision_type=2 2 2 2 2 2 2 2 2 2 2 2 2 2
left_child=3 -2 -3 4 7 6 -5 -1 10 -10 11 -7 13 -9
right_child=1 2 -4 5 -6 8 -8 12 9 -11 -12 -13 -14 -15
leaf_value=0.00046984386565380315 0.0070494628325104714 -0.0025339380583979869 0.0015021890851444212 0.00048371039076962254 0.0038746196333141556 -0.0017207500763619559 -0.0013368442739275371 -0.00069807628514590098 0.00064015451020428115 -0.0016009787463450006 -0.0023465948663651945 -0.00054383113559695981 -0.00010779161405350482 -0.0014499571498321452
leaf_weight=43 20 22 29 44 21 39 22 27 21 28 25 31 28 23
leaf_count=43 20 22 29 44 21 39 22 27 21 28 25 31 28 23
internal_value=0 0.00181417 -0.000238885 -0.000385765 0.000326444 -0.000867354 -0.000123141 -0.000289355 -0.00120845 -0.000640493 -0.0015014 -0.00119954 -0.000707888 -0.00104394
internal_weight=0 71 51 352 142 210 66 121 144 49 95 70 78 50
internal_count=423 71 51 352 142 210 66 121 144 49 95 70 78 50
shrinkage=0.1


end of trees

feature_importances:
age=66
total_experience=54
rubbish=29

parameters:
[boosting: gbdt]
[objective: regression]
[metric: l1,l2]
[tree_learner: serial]
[device_type: cpu]
[data: ]
[valid: ]
[num_iterations: 20]
[learning_rate: 0.1]
[num_leaves: 128]
[num_threads: 0]
[deterministic: 0]
[force_col_wise: 1]
[force_row_wise: 0]
[histogram_pool_size: -1]
[max_depth: -1]
[min_data_in_leaf: 20]
[min_sum_hessian_in_leaf: 0.001]
[bagging_fraction: 0.8]
[pos_bagging_fraction: 1]
[neg_bagging_fraction: 1]
[bagging_freq: 5]
[bagging_seed: 3]
[feature_fraction: 0.9]
[feature_fraction_bynode: 1]
[feature_fraction_seed: 2]
[extra_trees: 0]
[extra_seed: 6]
[early_stopping_round: 10]
[first_metric_only: 0]
[max_delta_step: 0]
[lambda_l1: 0]
[lambda_l2: 0]
[min_gain_to_split: 0]
[drop_rate: 0.1]
[max_drop: 50]
[skip_drop: 0.5]
[xgboost_dart_mode: 0]
[uniform_drop: 0]
[drop_seed: 4]
[top_rate: 0.2]
[other_rate: 0.1]
[min_data_per_group: 100]
[max_cat_threshold: 32]
[cat_l2: 10]
[cat_smooth: 10]
[max_cat_to_onehot: 4]
[top_k: 20]
[monotone_constraints: ]
[monotone_constraints_method: basic]
[monotone_penalty: 0]
[feature_contri: ]
[forcedsplits_filename: ]
[refit_decay_rate: 0.9]
[cegb_tradeoff: 1]
[cegb_penalty_split: 0]
[cegb_penalty_feature_lazy: ]
[cegb_penalty_feature_coupled: ]
[path_smooth: 0]
[interaction_constraints: ]
[verbosity: 0]
[saved_feature_importance_type: 0]
[max_bin: 255]
[max_bin_by_feature: ]
[min_data_in_bin: 3]
[bin_construct_sample_cnt: 200000]
[data_random_seed: 1]
[is_enable_sparse: 1]
[enable_bundle: 1]
[use_missing: 1]
[zero_as_missing: 0]
[feature_pre_filter: 1]
[pre_partition: 0]
[two_round: 0]
[header: 0]
[label_column: ]
[weight_column: ]
[group_column: ]
[ignore_column: ]
[categorical_feature: 10,12]
[forcedbins_filename: ]
[objective_seed: 5]
[num_class: 1]
[is_unbalance: 0]
[scale_pos_weight: 1]
[sigmoid: 1]
[boost_from_average: 1]
[reg_sqrt: 0]
[alpha: 0.9]
[fair_c: 1]
[poisson_max_delta_step: 0.7]
[tweedie_variance_power: 1.5]
[lambdarank_truncation_level: 30]
[lambdarank_norm: 1]
[label_gain: ]
[eval_at: ]
[multi_error_top_k: 1]
[auc_mu_weights: ]
[num_machines: 1]
[local_listen_port: 12400]
[time_out: 120]
[machine_list_filename: ]
[machines: ]
[gpu_platform_id: -1]
[gpu_device_id: -1]
[gpu_use_dp: 0]
[num_gpu: 1]

end of parameters

pandas_categorical:[["bachelor", "candidate", "higher", "master", "secondary", "special_secondary", "unfinished_higher"], ["", "Adobe Photoshop,figma,\u0413\u0440\u0430\u0444\u0438\u0447\u0435\u0441\u043a\u0438\u0439 \u0434\u0438\u0437\u0430\u0439\u043d,Adobe Illustrator,CSS,HTML,\u0414\u0438\u0437\u0430\u0439\u043d,UX,IX,Sass,SCSS,1C", "Adobe Photoshop,\u041f\u0440\u043e\u0434\u0432\u0438\u043d\u0443\u0442\u044b\u0439 \u043f\u043e\u043b\u044c\u0437\u043e\u0432\u0430\u0442\u0435\u043b\u044c \u041f\u041a,\u041d\u0430\u0447\u0430\u043b\u044c\u043d\u044b\u0435 \u0437\u043d\u0430\u043d\u0438\u044f \u043e\u0441\u043d\u043e\u0432 \u041e\u041e\u041f,\u0411\u0430\u0437\u043e\u0432\u044b\u0435 \u043d\u0430\u0432\u044b\u043a\u0438 \u043f\u0440\u043e\u0433\u0440\u0430\u043c\u043c\u0438\u0440\u043e\u0432\u0430\u043d\u0438\u044f \u043d\u0430 Python,\u0411\u0430\u0437\u043e\u0432\u044b\u0435 \u043d\u0430\u0432\u044b\u043a\u0438 \u043f\u0440\u043e\u0433\u0440\u0430\u043c\u043c\u0438\u0440\u043e\u0432\u0430\u043d\u0438\u044f \u043d\u0430 Java,\u0411\u0430\u0437\u043e\u0432\u044b\u0435 \u0437\u043d\u0430\u043d\u0438\u044f SQL,\u0411\u0430\u0437\u043e\u0432\u044b\u0435 \u0437\u043d\u0430\u043d\u0438\u044f Java Swing,\u041d\u0430\u0447\u0430\u043b\u044c\u043d\u044b\u0435 \u043d\u0430\u0432\u044b\u043a\u0438 \u043f\u0440\u043e\u0433\u0440\u0430\u043c\u043c\u0438\u0440\u043e\u0432\u0430\u043d\u0438\u044f \u043d\u0430 C++", "Ajax,Hibernate ORM,Java,JavaScript,JDBC,JSP,Linux,MySQL,Spring Framework,Java EE,Apache Maven,JSON API", "Android SDK,Java,Android,Git,XML,\u041e\u041e\u041f", "Android SDK,Java,IoT,SQL,Python,\u041e\u041e\u041f,Android Studio,Adobe Photoshop", "Android,Android SDK,Java,Spring Framework,PostgreSQL,\u041e\u041e\u041f,Hibernate ORM,Twitter Api,Telegram API,Liquibase", "Android,Java,Linux,JavaScript,SQL,\u041e\u041e\u041f,Android SDK,Git,C#,Kotlin,Node.js,C/C++,Shell,Unix Shell Scripts", "Android,Java,MS SQL,Delphi,FirebirdSQL,Hibernate ORM,Git,SQL,Object Pascal/Delphi,Embarcadero Delphi,Oracle 11G,iOS,\u0421\u0423\u0411\u0414,PostgreSQL,REST,Swing", "Android,Java,Windows 7,MySQL,SQLite,\u0420\u0430\u0437\u0440\u0430\u0431\u043e\u0442\u043a\u0430 \u041f\u041e,\u0420\u0435\u043c\u043e\u043d\u0442 \u041f\u041a,\u041d\u0430\u0441\u0442\u0440\u043e\u0439\u043a\u0430 \u041f\u041a,Linux,Android Studio,Git", "Android,Java,\u0420\u0430\u0431\u043e\u0442\u0430 \u0432 \u043a\u043e\u043c\u0430\u043d\u0434\u0435,\u041d\u0430\u0441\u0442\u0440\u043e\u0439\u043a\u0430 \u041f\u041e,\u041f\u043e\u043b\u044c\u0437\u043e\u0432\u0430\u0442\u0435\u043b\u044c \u041f\u041a,Android SDK,Java SE,\u041e\u041e\u041f,Intellij IDEA,SQLite,C\u0438\u0441\u0442\u0435\u043c\u044b \u0443\u043f\u0440\u0430\u0432\u043b\u0435\u043d\u0438\u044f \u0431\u0430\u0437\u0430\u043c\u0438 \u0434\u0430\u043d\u043d\u044b\u0445,Java EE,CSS,HTML,Git,XML,java Collections", "AutoCAD,Mathcad,SolidWorks,MS Office,\u043f\u0440\u043e\u0438\u0437\u0432\u043e\u0434\u0441\u0442\u0432\u043e,\u041f\u0440\u043e\u0435\u043a\u0442\u0438\u0440\u043e\u0432\u0430\u043d\u0438\u0435,\u041f\u0440\u043e\u0435\u043a\u0442\u043d\u043e-\u043a\u043e\u043d\u0441\u0442\u0440\u0443\u043a\u0442\u043e\u0440\u0441\u043a\u0430\u044f \u0434\u0435\u044f\u0442\u0435\u043b\u044c\u043d\u043e\u0441\u0442\u044c,\u041f\u0440\u043e\u0433\u0440\u0430\u043c\u043c\u0438\u0440\u043e\u0432\u0430\u043d\u0438\u0435,PHP,MATLAB,Java,MySQL,\u041e\u041e\u041f,jQuery,\u0412\u0435\u0431-\u043f\u0440\u043e\u0433\u0440\u0430\u043c\u043c\u0438\u0440\u043e\u0432\u0430\u043d\u0438\u0435,\u041a\u043e\u043c\u043f\u0430\u0441-3D,\u0420\u0430\u0437\u0440\u0430\u0431\u043e\u0442\u043a\u0430 \u043f\u0440\u043e\u0435\u043a\u0442\u043d\u043e\u0439 \u0434\u043e\u043a\u0443\u043c\u0435\u043d\u0442\u0430\u0446\u0438\u0438,3D \u041c\u043e\u0434\u0435\u043b\u0438\u0440\u043e\u0432\u0430\u043d\u0438\u0435,CATIA,SW Simulation,\u041a\u043e\u043c\u043f\u0430\u0441 3D,arduino", "AutoCAD,\u0418\u043d\u0436\u0435\u043d\u0435\u0440\u043d\u044b\u0435 \u0441\u0438\u0441\u0442\u0435\u043c\u044b,MATLAB,Mathcad,\u041a\u043e\u043c\u043f\u0430\u0441-3D,\u0412\u043e\u0434\u0438\u0442\u0435\u043b\u044c\u0441\u043a\u043e\u0435 \u0443\u0434\u043e\u0441\u0442\u043e\u0432\u0435\u0440\u0435\u043d\u0438\u0435 \u043a\u0430\u0442\u0435\u0433\u043e\u0440\u0438\u0438 B,\u043d\u043e\u0440\u043c\u0430\u0442\u0438\u0432\u043d\u043e-\u0442\u0435\u0445\u043d\u0438\u0447\u0435\u0441\u043a\u0430\u044f \u0434\u043e\u043a\u0443\u043c\u0435\u043d\u0442\u0430\u0446\u0438\u044f,\u041f\u0440\u043e\u0435\u043a\u0442\u0438\u0440\u043e\u0432\u0430\u043d\u0438\u0435,Simatic WinCC flexible,Alpha,Infinity,scada infinity,Autodesk Inventor,Autodesk Fusion 360,COMSOL Multiphysics,MS Office,Compass 3D,Java,MS PowerPoint,\u041f\u043e\u043b\u044c\u0437\u043e\u0432\u0430\u0442\u0435\u043b\u044c \u041f\u041a,\u0420\u0430\u0431\u043e\u0442\u0430 \u0432 \u043a\u043e\u043c\u0430\u043d\u0434\u0435,\u0420\u0430\u0431\u043e\u0442\u0430 \u0441 \u0431\u043e\u043b\u044c\u0448\u0438\u043c \u043e\u0431\u044a\u0435\u043c\u043e\u043c \u0438\u043d\u0444\u043e\u0440\u043c\u0430\u0446\u0438\u0438", "AutoCAD,\u041c\u0430\u0442\u0435\u043c\u0430\u0442\u0438\u0447\u0435\u0441\u043a\u043e\u0435 \u043c\u043e\u0434\u0435\u043b\u0438\u0440\u043e\u0432\u0430\u043d\u0438\u0435,Java SE,MS Excel,MS Office,ArcGIS,MS PowerPoint,CorelDRAW,Adobe Photoshop,\u041a\u0418\u0412\u0420,\u0413\u0435\u043e\u0434\u0435\u0437\u0438\u044f \u0438 \u043a\u0430\u0440\u0442\u043e\u0433\u0440\u0430\u0444\u0438\u044f,MS SQL,MIKE Zero,\u0413\u0438\u0434\u0440\u0430\u0432\u043b\u0438\u043a\u0430,\u0420\u0430\u0439\u043e\u043d\u0438\u0440\u043e\u0432\u0430\u043d\u0438\u0435 \u0442\u0435\u0440\u0440\u0438\u0442\u043e\u0440\u0438\u0438,MS Visio,MS Project,\u041a\u043e\u043d\u0441\u0443\u043b\u044c\u0442\u0430\u043d\u0442 \u043f\u043b\u044e\u0441", "B2C \u043f\u0440\u043e\u0434\u0430\u0436\u0438,HTML5,CSS3,JavaScript,Angular,Java,Spring Framework,\u041f\u0430\u0442\u0442\u0435\u0440\u043d\u044b \u043f\u0440\u043e\u0435\u043a\u0442\u0438\u0440\u043e\u0432\u0430\u043d\u0438\u044f,Hibernate ORM", "Bash,Nginx,Android SDK,Android,Java,JavaScript,Kotlin,Git,SQL,Socket,Spring Framework,Oracle SQL,Docker", "Borland Delphi,C++,Borland C++,AutoCAD,MySQL,Windows 7,Linux,Qt,Delphi,Windows Xp,SolidWorks,Java,Python", "C#,C++,Pascal,Python,PHP", "C#,HTML,CSS,SQL,Adobe Photoshop,Adobe Illustrator,Linux,Java,MS SQL Server,Python", "C#,Java SE,Git,\u041e\u041e\u041f,SQL,\u0411\u0430\u0437\u044b \u0434\u0430\u043d\u043d\u044b\u0445,\u041c\u0430\u0442\u0435\u043c\u0430\u0442\u0438\u0447\u0435\u0441\u043a\u043e\u0435 \u043f\u0440\u043e\u0433\u0440\u0430\u043c\u043c\u0438\u0440\u043e\u0432\u0430\u043d\u0438\u0435,\u041b\u043e\u043a\u0430\u043b\u044c\u043d\u044b\u0435 \u0441\u0435\u0442\u0438,\u0410\u043d\u0433\u043b\u0438\u0439\u0441\u043a\u0438\u0439 \u044f\u0437\u044b\u043a - \u0441\u0432\u043e\u0431\u043e\u0434\u043d\u043e\u0435 \u0432\u043b\u0430\u0434\u0435\u043d\u0438\u0435", "C#,Java,PostgreSQL,Git", "C#,JavaScript,MS Visual Studio,Python,C++,App inventor,\u0421\u043b\u0435\u043f\u0430\u044f \u043f\u0435\u0447\u0430\u0442\u044c,\u041e\u041e\u041f,\u0410\u043d\u0433\u043b\u0438\u0439\u0441\u043a\u0438\u0439 \u044f\u0437\u044b\u043a", "C#,Visual Studio C#,VBA,C/C++,Adobe Photoshop,Turbo Pascal,CorelDRAW,Unity,1\u0421 \u043f\u0440\u043e\u0433\u0440\u0430\u043c\u043c\u0438\u0440\u043e\u0432\u0430\u043d\u0438\u0435,1\u0421: \u0411\u0443\u0445\u0433\u0430\u043b\u0442\u0435\u0440\u0438\u044f \u0438 \u0441\u043a\u043b\u0430\u0434,WPF,.NET Framework,PHP,JavaScript,Python,Unix", "C++,C/C++,MS Excel,MS Word,Visual Basic,HTML,HTML5,CSS,JavaScript", "C++,Java,Python,PostgreSQL,Git,Spring", "C++,JavaScript,Java,CSS,MS Visual Studio,\u041e\u041e\u041f,C#,HTML5,Intellij IDEA,\u0412\u0435\u0434\u0435\u043d\u0438\u0435 \u043f\u0435\u0440\u0435\u0433\u043e\u0432\u043e\u0440\u043e\u0432,Hibernate ORM,Spring Framework,MySQL,Git,JDBC,Apache Maven,JPA", "C++,STL,Qt,Java,Java SE,Android,SQL,\u0420\u0430\u0431\u043e\u0442\u0430 \u0441 \u0431\u0430\u0437\u0430\u043c\u0438 \u0434\u0430\u043d\u043d\u044b\u0445,\u041e\u041e\u041f,HTML,Linux,SVN,Git,REST,Spring Framework,Hibernate", "C++,Visual Basic Applications,MS Visual Basic,CSS3,Microsoft Visual Studio,MySQL,\u0410\u043d\u0430\u043b\u0438\u0442\u0438\u0447\u0435\u0441\u043a\u043e\u0435 \u043c\u044b\u0448\u043b\u0435\u043d\u0438\u0435,HTML5,Java,\u0421\u0440\u0435\u0434\u0441\u0442\u0432\u0430 \u043a\u0440\u0438\u043f\u0442\u043e\u0433\u0440\u0430\u0444\u0438\u0447\u0435\u0441\u043a\u043e\u0439 \u0437\u0430\u0449\u0438\u0442\u044b \u0438\u043d\u0444\u043e\u0440\u043c\u0430\u0446\u0438\u0438,\u041f\u0410\u041a \"\u041a\u0440\u0438\u043f\u0442\u043e\u041f\u0440\u043e \u0423\u0426\",Oracle Pl/SQL", "C++,\u041e\u041e\u041f,Git,C#,SQL,3ds Max", "C++,\u0421#,HTML5,CSS,PHP,Unity", "C,C#,Java,HTML5,CSS,SQL,Git,JavaScript,Spring Framework,JPA,Hibernate ORM,PostgreSQL,Linux", "C/C++,C#,Git,MS Office,\u041e\u041e\u041f,Unity,XML,MS SQL", "C/C++,Python,Java,Git,MS Visual Studio,Intellij IDEA,C#,SQL", "C/C++,Visual Studio C#,Git,SQL,Java", "CSS,HTML,JavaScipt,MySQL,Git,Linux,jQuery,\u041e\u041e\u041f,SQL,Bootstrap,Yii,Ajax,PHP,Yii2", "Cisco,HTML,Java,Python,PHP,3ds Max,Figma,Adobe Photoshop,UI,UX,Miro,Xmind", "Django Framework,Python,JavaScript,MySQL,HTML,CSS,Git,Linux,HTML5,Nginx,C++,XML,\u041e\u041e\u041f,Bootstrap,React Framework,Docker,Java", "Django Framework,Python,PostgreSQL,Bash,HTML5,CSS,Git,Linux,Agile", "Git,Apache Maven,SQL,Linux,Spring Framework,Java SE,JUnit", "Git,C#,Unity,\u0420\u0430\u0431\u043e\u0442\u0430 \u0432 \u043a\u043e\u043c\u0430\u043d\u0434\u0435,Oracle Pl/SQL,CMS Wordpress,\u0420\u0430\u0437\u0440\u0430\u0431\u043e\u0442\u043a\u0430 \u043a\u043e\u043c\u043f\u044c\u044e\u0442\u0435\u0440\u043d\u044b\u0445 \u0418\u0433\u0440,\u041e\u041e\u041f,HTML,CSS,Java,Apache Maven,Spring Framework,Spring boot,Spring security,Spring data,Hibernate", "Git,Java Core,Java", "Git,Java,Intellij IDEA,Apache Maven,JUnit,log4j2,XML,SQL,1\u0421-\u0411\u0438\u0442\u0440\u0438\u043a\u0441,CS-Cart,JavaScript,CSS3,Linux,JDBC,JMH", "Git,Java,MySQL,\u041e\u041e\u041f,Spring Framework,Linux,XML,1\u0421 \u043f\u0440\u043e\u0433\u0440\u0430\u043c\u043c\u0438\u0440\u043e\u0432\u0430\u043d\u0438\u0435,1\u0421 \u0430\u0434\u043c\u0438\u043d\u0438\u0441\u0442\u0440\u0438\u0440\u043e\u0432\u0430\u043d\u0438\u0435,1\u0421 \u0411\u0443\u0445\u0433\u0430\u043b\u0442\u0435\u0440\u0438\u044f,1\u0421: \u0423\u043f\u0440\u0430\u0432\u043b\u0435\u043d\u0438\u0435 \u0422\u043e\u0440\u0433\u043e\u0432\u043b\u0435\u0439,1\u0421 \u0423\u041d\u0424,1\u0421: \u0420\u043e\u0437\u043d\u0438\u0446\u0430", "Git,MySQL,jQuery,HTML,CSS,PHP,Linux,Python,Nginx,Redis,RabbitMQ,Docker", "Git,\u0410\u043d\u0433\u043b\u0438\u0439\u0441\u043a\u0438\u0439 \u044f\u0437\u044b\u043a,C/C++,Linux,Java,Spring Framework,SQL,Hibernate ORM,Apache Maven,Gradle,JUnit,Spring MVC", "Git,\u041e\u041e\u041f,Java Collections,\u0410\u043b\u0433\u043e\u0440\u0438\u0442\u043c\u044b,Java Core,Linux", "HTML,CSS,Git,PostgreSQL,SpringBoot,Java,LibGDX,Maven,Hibernate,Thymeleaf,MySQL,Gradle,Spring MVC,Spring Security,Jms,Docker,RabbitMQ,JUnit", "HTML,CSS,Java,IDEA,\u0421\u043b\u0435\u043f\u0430\u044f \u043f\u0435\u0447\u0430\u0442\u044c \u043d\u0430 \u0430\u043d\u0433\u043b\u0438\u0439\u0441\u043a\u043e\u043c \u0438 \u0440\u0443\u0441\u0441\u043a\u043e\u043c,\u0424\u043e\u0442\u043e\u0448\u043e\u043f,Git", "HTML,CSS,JavaScript", "HTML,CSS,JavaScript,Git,\u0421,C++,Python,Linux,Haskell", "HTML,CSS,JavaScript,ReactJS,Vue.JS,Git,Redux,Webpack,Babel,Sass,TypeScript,jQuery,Bootstrap", "HTML,CSS,JavaScript,jQuery,\u041e\u041e\u041f,Git,PHP,MySQL,\u0410\u0434\u0430\u043f\u0442\u0438\u0432\u043d\u0430\u044f \u0432\u0435\u0440\u0442\u0441\u043a\u0430,\u041a\u0440\u043e\u0441\u0441\u0431\u0440\u0430\u0443\u0437\u0435\u0440\u043d\u0430\u044f \u0432\u0435\u0440\u0441\u0442\u043a\u0430", "HTML,CSS,MySQL,Git,MS SQL,CRM,Shell,Typescript,PHP,Java EE,VueJS,Node.js,JNDI,JMS", "HTML,CSS,PHP,JavaScript,SQL,Oracle Pl/SQL,C#,Java,Delphi,\u041e\u041e\u041f,Pascal,Linux,Lazarus", "HTML,Git,Kanban,Java,Spring Framework,Hibernate,PostgreSQL", "HTML,HTML5,CSS,CSS3,JavaScript,jQuery,Bootstrap,Sass,Less", "HTML,JavaScript,jQuery,CSS3,CSS,Python,\u041e\u041e\u041f,Java", "HTML,\u0420\u0430\u0431\u043e\u0442\u0430 \u0441 \u0431\u0430\u0437\u0430\u043c\u0438 \u0434\u0430\u043d\u043d\u044b\u0445,MS Office,SQL,CSS,\u041f\u043e\u043b\u044c\u0437\u043e\u0432\u0430\u0442\u0435\u043b\u044c \u041f\u041a,IDEF0,UML,C++,Linux,Time management,Google Docs,Python,MySQL,BPMN,PHP,jQuery,JavaScript,HTML5,CMS Wordpress,SEO,C#,Joomla CMS,PostgreSQL,1\u0421-\u0411\u0438\u0442\u0440\u0438\u043a\u0441", "HTML-\u0432\u0435\u0440\u0441\u0442\u0430\u043b\u044c\u0449\u0438\u043a", "HTML5,CSS3,Java,\u041e\u041e\u041f,Spring Framework,JavaScript,Hibernate ORM,jQuery,MySQL,PostgreSQL,Angular,JDBC,Docker,\u0420\u0430\u0431\u043e\u0442\u0430 \u0432 \u043a\u043e\u043c\u0430\u043d\u0434\u0435", "HTML5,CSS3,JavaScript,Java,Bootstrap,Sass,Git,Gulp,\u041a\u0440\u043e\u0441\u0441\u0431\u0440\u0430\u0443\u0437\u0435\u0440\u043d\u0430\u044f \u0432\u0435\u0440\u0441\u0442\u043a\u0430,Adobe Photoshop,ReactJS", "HTML5,CSS3,JavaScript,jQuery,Bootstrap,\u0430\u0434\u0430\u043f\u0442\u0438\u0432\u043d\u0430\u044f \u0432\u0435\u0440\u0441\u0442\u043a\u0430,scss,Git,BEM,React", "Intellij IDEA,Eclipse,Internet,AutoCAD,MS Word,MS Excel,Git,Java", "Intellij IDEA,PostgreSQL,Git,Java,Spring Framework,Hibernate ORM", "Internet,1\u0421: \u041f\u0440\u0435\u0434\u043f\u0440\u0438\u044f\u0442\u0438\u0435 8,Windows 10,\u041e\u0444\u0438\u0441\u043d\u0430\u044f \u0442\u0435\u0445\u043d\u0438\u043a\u0430,\u0412\u0435\u0434\u0435\u043d\u0438\u0435 \u043f\u0435\u0440\u0435\u0433\u043e\u0432\u043e\u0440\u043e\u0432", "JS Native,NODE.js, REST API,\u043e\u0441\u043d\u043e\u0432\u044b TypeScript,ESLint,Webpack,HTML, CSS (SCSS/SASS),Git,\u042d\u043a\u043e\u043d\u043e\u043c\u0438\u0447\u0435\u0441\u043a\u0438\u0439 \u0430\u043d\u0430\u043b\u0438\u0437,\u0414\u043e\u0433\u043e\u0432\u043e\u0440\u043d\u0430\u044f \u0440\u0430\u0431\u043e\u0442\u0430,\u0417\u0430\u043a\u0443\u043f\u043a\u0438,\u0421\u043c\u0435\u0442\u044b,\u0411\u0438\u0440\u0436\u0435\u0432\u044b\u0435 \u0442\u043e\u0440\u0433\u0438,Figma", "JUnit,Java SE,Java EE,Oracle Pl/SQL,JavaFX,JSF", "Java", "Java Core,Android studio,Firebase,Maven,\u0427\u0442\u0435\u043d\u0438\u0435 \u0442\u0435\u0445\u043d\u0438\u0447\u0435\u0441\u043a\u043e\u0439 \u0434\u043e\u043a\u0443\u043c\u0435\u043d\u0442\u0430\u0446\u0438\u0438 \u043d\u0430 \u0430\u043d\u0433\u043b\u0438\u0439\u0441\u043a\u043e\u043c \u044f\u0437\u044b\u043a\u0435,\u0411\u0430\u0437\u043e\u0432\u044b\u0435 \u0437\u043d\u0430\u043d\u0438\u044f Unix,Gradle,JSON,Java,Room,SQLite,Git", "Java Core,Git", "Java Core,Git,Java Syntax", "Java Core,HTML,CSS,MySQL,Java FX,JDBC", "Java Core,JDBC,MS SQL,\u041c\u0430\u0442\u0435\u043c\u0430\u0442\u0438\u0447\u0435\u0441\u043a\u0430\u044f \u0441\u0442\u0430\u0442\u0438\u0441\u0442\u0438\u043a\u0430,\u041c\u0430\u0442\u0435\u043c\u0430\u0442\u0438\u0447\u0435\u0441\u043a\u043e\u0435 \u043c\u043e\u0434\u0435\u043b\u0438\u0440\u043e\u0432\u0430\u043d\u0438\u0435,Git,MATLAB", "Java Core,Java 8,\u041e\u041e\u041f,Java Servlets,JUnit,SQL,HTML,CSS,Git,Apache Maven,Apache Tomcat,Atlassian Jira", "Java Core,Java Collections,PostgreSQL,Git,Maven,\u0411\u0430\u0437\u043e\u0432\u044b\u0435 \u0437\u043d\u0430\u043d\u0438\u044f : Spring Core, Spring Data JPA, Spring MVC", "Java Core,Java Script,HTML,CSS,Java", "Java Core,MySQL,Hibernate,Spring Framework,Git,JUnit,Design Patterns", "Java Core,MySQL,JDBC,Maven,Apache Tomcat,JSON API,XML,Gson API,Java Servlets,HTML,CSS,JavaScript,JaxB,MVC,JSTL,JSP,GDScript,Python,Git", "Java Core,SQL,Firebase,HTML,CSS,JavaScript,Node.js,Golang,Figma,Latex,Git,Linux,\u041e\u041e\u041f,XML", "Java Core,SQL,Git,Apache Maven,Spring Framework", "Java Core,SQL: DDL, DML,Git,Java: LibGDX,Java: JUnit 5 \u043f\u0440\u043e\u0441\u0442\u044b\u0435 \u0442\u0435\u0441\u0442\u044b,\u041e\u041e\u041f,Spring: MVC, Boot", "Java Core,Spring Boot,SQL,Apache Maven,PostgreSQL,\u041e\u041e\u041f,MyBatis,Git,Kotlin,Gradle,JUnit,AOP", "Java Core,Spring Framework,Hibernate ORM,Git,SQL,PostgreSQL,Oracle Pl/SQL,Apache Tomcat", "Java Core,\u041e\u041e\u041f,Intellij IDEA,Git,MS SQL,SQLite,MS Office,\u0410\u043d\u0430\u043b\u0438\u0442\u0438\u0447\u0435\u0441\u043a\u0438\u0435 \u0438\u0441\u0441\u043b\u0435\u0434\u043e\u0432\u0430\u043d\u0438\u044f,\u041d\u0430\u0443\u0447\u043d\u0430\u044f \u0434\u0435\u044f\u0442\u0435\u043b\u044c\u043d\u043e\u0441\u0442\u044c,\u041e\u0440\u0433\u0430\u043d\u0438\u0437\u0430\u0446\u0438\u043e\u043d,\u041e\u0440\u0433\u0430\u043d\u0438\u0437\u0430\u0442\u043e\u0440\u0441\u043a\u0438\u0435 \u043d\u0430\u0432\u044b\u043a\u0438,\u041e\u0440\u0433\u0430\u043d\u0438\u0437\u0430\u0446\u0438\u044f \u043c\u0435\u0440\u043e\u043f\u0440\u0438\u044f\u0442\u0438\u0439,\u041e\u0440\u0438\u0435\u043d\u0442\u0430\u0446\u0438\u044f \u043d\u0430 \u0440\u0435\u0437\u0443\u043b\u044c\u0442\u0430\u0442,\u0412\u043d\u0438\u043c\u0430\u0442\u0435\u043b\u044c\u043d\u043e\u0441\u0442\u044c,\u0422\u0440\u0443\u0434\u043e\u043b\u044e\u0431\u0438\u0435,\u041f\u043e\u0434\u0433\u043e\u0442\u043e\u0432\u043a\u0430 \u043f\u0440\u0435\u0437\u0435\u043d\u0442\u0430\u0446\u0438\u0439,\u041f\u0440\u043e\u0432\u0435\u0434\u0435\u043d\u0438\u0435 \u043f\u0440\u0435\u0437\u0435\u043d\u0442\u0430\u0446\u0438\u0439,1\u0421: \u0411\u0443\u0445\u0433\u0430\u043b\u0442\u0435\u0440\u0438\u044f,1\u0421: \u0417\u0430\u0440\u043f\u043b\u0430\u0442\u0430 \u0438 \u0443\u043f\u0440\u0430\u0432\u043b\u0435\u043d\u0438\u0435 \u043f\u0435\u0440\u0441\u043e\u043d\u0430\u043b\u043e\u043c,\u0412\u042d\u0414,\u0418\u043c\u043f\u043e\u0440\u0442\u043d\u044b\u0435 \u043e\u043f\u0435\u0440\u0430\u0446\u0438\u0438,\u042d\u043a\u0441\u043f\u043e\u0440\u0442\u043d\u044b\u0435 \u043e\u043f\u0435\u0440\u0430\u0446\u0438\u0438,\u042e\u0440\u0438\u0434\u0438\u0447\u0435\u0441\u043a\u0430\u044f \u043f\u043e\u0434\u0434\u0435\u0440\u0436\u043a\u0430,\u0411\u0438\u0442\u0440\u0438\u043a\u0441 24", "Java EE,Java SE,Git,Apache Maven,Hibernate ORM,PostgreSQL,XML,JDBC,Apache Tomcat,Spring Framework", "Java EE,Java SE,PostgreSQL,MongoDB,MyBatis,\u041e\u041e\u041f,JDBC,Apache Maven,Hibernate ORM,Git,Linux,Apache Tomcat,JPA,Gitlab", "Java EE,SQL,JDBC,Apache Maven,Git,JUnit,Mockito,\u0410\u043d\u0433\u043b\u0438\u0439\u0441\u043a\u0438\u0439 \u044f\u0437\u044b\u043a,\u041d\u0435\u043c\u0435\u0446\u043a\u0438\u0439 \u044f\u0437\u044b\u043a,Spring Framework,Spring MVC", "Java EE,Spring Framework,\u041e\u041e\u041f,PostgreSQL,Hibernate ORM,Git,Maven,Gradle,REST", "Java SE,Git,SQL,Java,Android,Android SDK,\u041e\u041e\u041f,Java EE,REST,Spring Framework,\u0420\u0430\u0437\u0440\u0430\u0431\u043e\u0442\u043a\u0430 \u041f\u041e,HTML,CSS,C#,.NET Framework", "Java SE,Java EE,Git,HTML,CSS,SQL,Spring Framework,Hibernate ORM,PostgreSQL,JDBC,\u041e\u041e\u041f,Apache Maven,JUnit,Log4j,Feign,Gradle", "Java SE,Java EE,JSP,JDBC,JUnit,Apache Tomcat,Apache Maven,Hibernate ORM,Spring Framework,Spring Core,Spring MVC,Spring Data,Spring Security,Spring Boot,REST,SQL,MySQL,Git,Java Servlets,Liquibase,Gradle,PostgreSQL", "Java SE,Java EE,MySQL,Java Servlets,XML,HTML5,Hibernate ORM,Apache Tomcat,Android SDK,C++,MFC,Spring Framework", "Java SE,Java EE,SQL,Intellij IDEA,Eclipse,Apache Maven", "Java SE,Java EE,\u041e\u041e\u041f,MySQL,PostgreSQL,Spring Boot,Spring Framework,Spring Security,JSP,FlywayDB,Lombok,Git,JDBC,Intellij IDEA,Eclipse,JavaScript,jQuery,Ajax,HTML5,CSS3,Bootstrap,CMS Wordpress,Joomla CMS,Modx Revo CMS,SEO,Thymeleaf,\u041f\u0430\u0442\u0442\u0435\u0440\u043d\u044b \u043f\u0440\u043e\u0435\u043a\u0442\u0438\u0440\u043e\u0432\u0430\u043d\u0438\u044f", "Java SE,Java,JDBC,SQL,JavaScript,Spring Framework,REST,\u041e\u041e\u041f,Hibernate ORM,HTML,CSS,Git,Apache Maven", "Java SE,Java,\u0420\u0430\u0431\u043e\u0442\u0430 \u0432 \u043a\u043e\u043c\u0430\u043d\u0434\u0435,\u041e\u0431\u0443\u0447\u0435\u043d\u0438\u0435 \u0438 \u0440\u0430\u0437\u0432\u0438\u0442\u0438\u0435,Spring Framework,\u0410\u043b\u0433\u043e\u0440\u0438\u0442\u043c\u044b,MySQL", "Java SE,MySQL,Git,\u041e\u041e\u041f", "Java SE,MySQL,HSQLDB,SQLite,Apache Maven,Gradle,ANT,Intellij IDEA,Apache NetBeans,Git,JUnit,Mockito,Spring WebMVC,HTML,CSS,Atlassian Jira", "Java SE,SQL,Git,Apache Maven,Linux,MS SQL Server,1\u0421 \u043f\u0440\u043e\u0433\u0440\u0430\u043c\u043c\u0438\u0440\u043e\u0432\u0430\u043d\u0438\u0435,1\u0441", "Java SE,SQL,Hibernate ORM,JUnit,\u041e\u041e\u041f,HTML,CSS", "Java SE,Spring Framework,Hibernate ORM,PostgreSQL,Apache Maven,Git,\u041e\u041e\u041f,Thymeleaf,HTML,CSS,Liquibase,EJB,Oracle Database,jooq", "Java SE,Vaadin,Jetty,Netty,Java Servlets,XML,SQL,JDBC,FirebirdSQL,Apache Maven,Stream,Dropwizard Metrics,Spring Framework,c3p0,HikariCP,GraphHopper", "Java SE,\u041e\u041e\u041f,Git,Apache Maven,Bash,Docker", "Java SE8,Spring Framework,MySQL,PostgreSQL,Apache Maven,Git,JSP,Apache Tomcat,jQuery,Java EE,Hibernate ORM,Atlassian Jira,vaadin,JavaScript,Ajax", "Java Servlets,Hibernate ORM,SOAP,REST,Spring Boot", "Java core,Git,PostgreSQL,JUnit,HTML/CSS,Spring core,Spring MVC,Spring boot", "Java, Android, \u0421\u0423\u0411\u0414(MySQL, PostgreSQL)", "Java,1\u0421: \u0423\u043f\u0440\u0430\u0432\u043b\u0435\u043d\u0438\u0435 \u0422\u043e\u0440\u0433\u043e\u0432\u043b\u0435\u0439,Linux,TOR,Microtik,VPN,I2P,1C: \u0411\u0443\u0445\u0433\u0430\u043b\u0442\u0435\u0440\u0438\u044f,SAP R/3,ORACLE,1\u0421: \u041a\u043e\u043c\u043f\u043b\u0435\u043a\u0441\u043d\u0430\u044f \u0430\u0432\u0442\u043e\u043c\u0430\u0442\u0438\u0437\u0430\u0446\u0438\u044f,1\u0421 \u043f\u0440\u043e\u0433\u0440\u0430\u043c\u043c\u0438\u0440\u043e\u0432\u0430\u043d\u0438\u0435", "Java,Android SDK,Kotlin,Retrofit,Picasso,Glide,Firebase,Git,MVVM", "Java,Android,\u0410\u043d\u0433\u043b\u0438\u0439\u0441\u043a\u0438\u0439 \u044f\u0437\u044b\u043a", "Java,Apache Maven,Hibernate ORM,PostgreSQL,Apache Tomcat,JUnit,Intellij IDEA,JDBC,JSON API,Git,Spring Framework", "Java,C#,\u041e\u041e\u041f,HTML5,CSS3,MS SQL Server,SQL,GitHub,C++,PostgreSQL,\u041e\u0442\u0432\u0435\u0442\u0441\u0442\u0432\u0435\u043d\u043d\u043e\u0441\u0442\u044c,\u041f\u0443\u043d\u043a\u0442\u0443\u0430\u043b\u044c\u043d\u043e\u0441\u0442\u044c,\u0413\u0440\u0430\u043c\u043c\u043e\u0442\u043d\u0430\u044f \u0440\u0435\u0447\u044c,\u0412\u043d\u0438\u043c\u0430\u0442\u0435\u043b\u044c\u043d\u043e\u0441\u0442\u044c", "Java,C++,Git,C#,Python,\u041e\u041e\u041f,SQL,Spring Framework,Android Studio", "Java,C++,Git,MS SQL,HTML5,Python,Android,\u041e\u041e\u041f,\u0411\u0430\u0437\u044b \u0434\u0430\u043d\u043d\u044b\u0445,MS Visual Studio,Intellij IDEA,Android SDK", "Java,C++,Git,Python,\u041e\u041e\u041f", "Java,C++,Lua,\u041e\u041e\u041f,\u0411\u0430\u0437\u044b \u0434\u0430\u043d\u043d\u044b\u0445,\u041f\u0430\u0442\u0442\u0435\u0440\u043d\u044b \u0440\u0435\u0444\u0430\u043a\u0442\u043e\u0440\u0438\u043d\u0433\u0430,Spring Framework,Apache Tomcat,REST,Linux,Git,CRUD,JDBC,Hibernate ORM,spring boot", "Java,C++,\u0413\u043e\u0442\u043e\u0432\u043d\u043e\u0441\u0442\u044c \u0443\u0447\u0438\u0442\u044c\u0441\u044f,\u0420\u0430\u0431\u043e\u0442\u0430 \u0432 \u043a\u043e\u043c\u0430\u043d\u0434\u0435,\u041c\u043d\u043e\u0433\u043e\u0437\u0430\u0434\u0430\u0447\u043d\u043e\u0441\u0442\u044c,\u041e\u0442\u0432\u0435\u0442\u0441\u0442\u0432\u0435\u043d\u043d\u043e\u0441\u0442\u044c,\u0423\u0441\u0438\u0434\u0447\u0438\u0432\u043e\u0441\u0442\u044c", "Java,Exel,Intellij IDEA,MS SQL,PostgreSQL,MySQL,\u041e\u041e\u041f,SQL,Git,Spring Framework,Swing,jQuery,Java SE,Java Core", "Java,Git,Intellij IDEA,Spring Framework,Spring Data JPA", "Java,Git,Maven,Spring Framework,Hibernate ORM,REST,SQL", "Java,Git,MySQL,PostgreSQL,Spring Framework,\u041e\u041e\u041f,Hibernate ORM", "Java,Git,MySQL,\u041e\u041e\u041f,JDBC,Hibernate ORM,Spring Framework,Linux,JPA", "Java,Git,PostgreSQL,\u041e\u041e\u041f,Intellij IDEA,Apache Tomcat,Eclipse,Java Core,JavaColl,Java Collections,Java Multithreading,Spring Framework,JAVA Lambda,Hibernate Framework,Java Servlets", "Java,Git,SQL", "Java,Git,SQL,Atlassian Jira,JUnit,Intellij IDEA,\u041f\u043b\u0430\u043d\u0438\u0440\u043e\u0432\u0430\u043d\u0438\u0435 \u043a\u0430\u0440\u044c\u0435\u0440\u044b,C#,MS Visual Studio,Unity", "Java,Git,\u041e\u041e\u041f,C/C++,Docker,Bash,HTML,CSS,Unix,JavaScript,SQL,Unit Testing,\u0420\u0430\u0431\u043e\u0442\u0430 \u0432 \u043a\u043e\u043c\u0430\u043d\u0434\u0435,\u0423\u043f\u0440\u0430\u0432\u043b\u0435\u043d\u0438\u0435 \u0432\u0440\u0435\u043c\u0435\u043d\u0435\u043c", "Java,Git,\u041e\u041e\u041f,PostgreSQL,Linux,Intellij IDEA,JDBC,Unit Testing,Maven,Hibernate ORM,Spring Framework", "Java,Git,\u0420\u0430\u0431\u043e\u0442\u0430 \u0432 \u043a\u043e\u043c\u0430\u043d\u0434\u0435,Intellij IDEA,JDBC,\u041e\u041e\u041f,MySQL,SQL,HTML,Linux,XML,PostgreSQL,Hibernate", "Java,HTML,JavaScript,CSS,Ajax,SQL,Bootstrap,MySQL,\u0423\u043c\u0435\u043d\u0438\u0435 \u0440\u0430\u0431\u043e\u0442\u0430\u0442\u044c \u0432 \u043a\u043e\u043b\u043b\u0435\u043a\u0442\u0438\u0432\u0435,3ds Max,Autodesk 3ds Max,vray,jQuery,Mathematical Statistics,algorithms,Oracle Pl/SQL,C#,PostgreSQL,MS SQL,ASP.NET,\u041e\u041e\u041f,Git,LINQ,Adobe Photoshop,MS SQL Server,Entity Framework", "Java,HTML5,JavaScript,Adobe Photoshop,VBA,jQuery,Delphi,Android,MySQL,react,react js,Git,CSS3", "Java,HTML5,MySQL,PostgreSQL,Python,SQL,C++,1\u0421 \u043f\u0440\u043e\u0433\u0440\u0430\u043c\u043c\u0438\u0440\u043e\u0432\u0430\u043d\u0438\u0435,PHP,Bootstrap 4,Dart/Flutter,Laravel", "Java,Intellij IDEA,Android Studio", "Java,Intellij IDEA,Git,Apache Maven,Apache Tomcat,PostgreSQL,Java Servlets,\u041e\u041e\u041f,JDBC,Java EE,Java SE,Collections,SQL", "Java,Intellij IDEA,SQL,Git,Android SDK,\u041e\u041e\u041f", "Java,JDBC,Git,MySQL,Apache Maven,JUnit,Mockito,ORM MyBatis,stream api,Linux,Spring boot,Spring MVC,IntelIJ IDEA,C#,MS Visual Studio,Visual Studio Code,Python,Flask,SQLAlchemie,SQLite", "Java,Java Core,Spring Boot,Spring MVC,Spring Data,SQL,MySQL,SQLite,Git,Apache Tomcat,REST,\u041e\u041e\u041f,MVC,HTTP,IDEF0,IDEF1,UML,HTML", "Java,Java SE,Git,Spring Framework,MySQL,\u041e\u041e\u041f,SQL,Swing", "Java,Java SE,Java EE,SQL,JDBC,PostgreSQL,Hibernate ORM,JSP,Java Servlets,Apache Tomcat,Apache Maven,Git,Linux,Spring Boot,JSF,JavaScript,HTML,CSS,\u041e\u041e\u041f", "Java,JavaScript,HTML,CSS,SQL,Software Development,MongoDB,PostgreSQL,Spring Framework,Apache Maven", "Java,JavaScript,Python,Android,C#,Oracle Pl/SQL,\u041e\u041e\u041f,PHP,HTML,3D Studio Max,Cisco,Visual Studio C#,CSS", "Java,Linux,Git,PostgreSQL,MySQL,\u0420\u0430\u0431\u043e\u0442\u0430 \u0441 \u0431\u0430\u0437\u0430\u043c\u0438 \u0434\u0430\u043d\u043d\u044b\u0445,\u0410\u0434\u043c\u0438\u043d\u0438\u0441\u0442\u0440\u0438\u0440\u043e\u0432\u0430\u043d\u0438\u0435 \u0441\u0435\u0440\u0432\u0435\u0440\u043e\u0432 Linux", "Java,Linux,\u0422\u0435\u0445\u043d\u0438\u0447\u0435\u0441\u043a\u0430\u044f \u043f\u043e\u0434\u0434\u0435\u0440\u0436\u043a\u0430,SQL", "Java,MS SQL,HTML,adb,emulator", "Java,Maven,Linux,\u041e\u041e\u041f,Git,HTML5,CSS3,Hibernate ORM,MySQL/PostgreSQL(\u0431\u0430\u0437\u043e\u0432\u044b\u0435 \u0437\u0430\u043f\u0440\u043e\u0441\u044b)", "Java,Maven,SQL,JavaScript,HTML5,CSS3,Spring Framework,Git,XML,REST,jQuery,Node.js", "Java,MySQL,C#,PHP", "Java,MySQL,Git,Linux,Spring mvc,Hibernate ORM", "Java,PostgreSQL,Maven/Gradle,Linux,C/C++,\u041e\u041e\u041f,\u041c\u043d\u043e\u0433\u043e\u043f\u043e\u0442\u043e\u0447\u043d\u043e\u0435 \u043f\u0440\u043e\u0433\u0440\u0430\u043c\u043c\u0438\u0440\u043e\u0432\u0430\u043d\u0438\u0435", "Java,PostgreSQL,MySQL,Spring Boot,Git,Apache Tomcat,Hibernate ORM", "Java,PostgreSQL,\u0420\u0430\u0431\u043e\u0442\u0430 \u0432 \u043a\u043e\u043c\u0430\u043d\u0434\u0435,Spring Boot", "Java,Python,C++,Linux,Git,SQL,MySQL,JavaScript,jQuery,\u0423\u043f\u0440\u0430\u0432\u043b\u0435\u043d\u0438\u0435 \u043f\u0440\u043e\u0435\u043a\u0442\u0430\u043c\u0438,\u041a\u0440\u0435\u0430\u0442\u0438\u0432\u043d\u043e\u0441\u0442\u044c", "Java,Python,Django Framework", "Java,Python,PostgreSQL,AWS,EC2,Flyway,Spring Framework,Django Framework", "Java,Python,VBA,\u041e\u041e\u041f,Git,Redmine", "Java,Python,Web Application Development,HTML,CSS3,Js", "Java,SQL Server,\u041e\u041e\u041f,Android SDK,JavaEE,Apache Maven,Apache Tomcat,Spring Framework,REST,Git,MVC,JPA,PostgreSQL,Hibernate ORM,XML,JSP,Java SE,Linux,HTML,JSON API", "Java,SQL,1C,Spring Framework,JavaScript,React", "Java,SQL,Android Studio,Git,\u041e\u041e\u041f,JSON,Java SE,HTML5,CSS3,Apache Maven,\u0430\u043b\u0433\u043e\u0440\u0438\u0442\u043c\u044b \u0438 \u0441\u0442\u0440\u0443\u043a\u0442\u0443\u0440\u044b \u0434\u0430\u043d\u043d\u044b\u0445,Selenium WebDriver,Cucumber,REST,HTTP,\u0410\u043d\u0433\u043b\u0438\u0439\u0441\u043a\u0438\u0439 \u044f\u0437\u044b\u043a", "Java,SQL,Apache Maven,Gradle,HTML5,CSS3", "Java,SQL,Git,\u041e\u041e\u041f,Spring Framework,HTML,Java SE", "Java,SQL,HTML,CSS3", "Java,SQL,Intellij IDEA,Spring,Vaadin", "Java,SQL,MySQL,PostgreSQL,Hibernate ORM,JBoss,Apache Tomcat,Apache Maven,Git,Design Patterns,Design Principles,Spring Framework,Spring Boot,Spring Data,Spring Security,Spring MVC,Spring Test", "Java,SQL,PostgreSQL,Git,HTML5,CSS3,Apache Tomcat,Spring Framework,Hibernate ORM,Java Servlets,Apache Maven", "Java,SQL,Spring Framework,Hibernate ORM,JSP,Java Servlets,Apache Tomcat,Java SE,JDBC,HTML5,CSS,Docker,Kafka,Mockito,JUnit", "Java,SQL,Spring,Hibernate,Maven,Git", "Java,Spring Framework,Hibernate ORM,Git,SQL,Linux", "Java,Spring Framework,Hibernate ORM,PostgreSQL,HTML,Apache Maven,Apache Tomcat,Linux,Git,\u041e\u041e\u041f,Java EE,Atlassian Jira,SQL,MVC,Docker", "Java,Spring Framework,MySQL,PostgreSQL,Git,Docker,HTML,CSS,hystrix,Spring Boot,Spring", "Java,Spring Framework,PostgreSQL,Hibernate ORM,CSS,HTML,Git", "Java,Spring Framework,PostgreSQL,Hibernate ORM,SQL,REST,ELK,\u041e\u041e\u041f", "Java,Spring Framework,SQL,Git,Hibernate ORM,\u041e\u041e\u041f,REST", "Java,Spring Framework,SQL,Java SE,C++", "Java,Spring Framework,Spring Data,Spring MVC,Spring Boot,PostgreSQL,Hibernate ORM", "Java,Spring Framework,\u041e\u041e\u041f,Git,MySQL,JavaScript,jQuery,Ajax,Maven", "Java,Spring,Maven,TypeScript,Angular,React,Docker,CI/CD,Gitflow", "Java,Stream API,Spring Framework,JPA,DATA JPA,JDBC,MVC,Java Servlets,Hibernate ORM,PostgreSQL,SQL,HSQLDB,Apache Tomcat,Apache Maven,Git,JSP,REST,JSON,JavaScript,jQuery,CSS,Bootstrap,HTML,XML", "Java,Visual Studio C#,\u041e\u041e\u041f,Git,SQL,WPF,.NET Framework,MS SQL Server,Excel VBA", "Java,XML,HTML,SQL,Git,Apache Maven,JUnit,Jackson,Postman,Ajax,jQuery,\u041e\u041e\u041f,PostgreSQL,MVC,GWT", "Java,\u0411\u0430\u0437\u044b \u0434\u0430\u043d\u043d\u044b\u0445,Git,Spring Framework,\u041e\u041e\u041f,Linux,Intellij IDEA,Python,\u0420\u0430\u0437\u0440\u0430\u0431\u043e\u0442\u043a\u0430 \u041f\u041e,\u0410\u0434\u043c\u0438\u043d\u0438\u0441\u0442\u0440\u0438\u0440\u043e\u0432\u0430\u043d\u0438\u0435 \u0441\u0435\u0440\u0432\u0435\u0440\u043e\u0432 Linux,SQL,C++,Nginx,Apache HTTP Server", "Java,\u041e\u041e\u041f,Git", "Java,\u041e\u041e\u041f,Git,Spring Framework,MySQL,Linux,\u0421\u0435\u0440\u0432\u0435\u0440\u043d\u043e\u0435 \u043f\u0440\u043e\u0433\u0440\u0430\u043c\u043c\u0438\u0440\u043e\u0432\u0430\u043d\u0438\u0435,Backend,Unit Testing,MS SQL,REST", "Java,\u041e\u041e\u041f,SQL,XML,HTML,CSS,Git,Gradle", "Java,\u041e\u041e\u041f,SQL,XML,JavaScript,Intellij IDEA,Spring Framework", "Java,\u041f\u0430\u0442\u0442\u0435\u0440\u043d\u044b \u043f\u0440\u043e\u0435\u043a\u0442\u0438\u0440\u043e\u0432\u0430\u043d\u0438\u044f,Git,Room,Retrofit,Material design,Rxjava,HTML5,CSS", "JavaScript,Git,Adobe Photoshop,C++,HTML5,Java,CSS3,PHP,MySQL,\u041e\u041e\u041f,Python,C#,SQL,PHP5,Linux,XML,Android", "JavaScript,HTML,jQuery,Linux,\u041e\u041e\u041f,Bootstrap,Git,Ajax,React,Adobe Photoshop,SCSS,Gulp,React.js,Reactjs,CSS,HTML5,CSS3,Java,Redux,Sass,HTTP,JSON API", "JavaScript,HTML5,CSS3,\u041e\u041e\u041f,Gulp,Java,C++,Git,React,PHP,MySQL", "JavaScript,MATLAB,Assembler,C++,Pascal,Visual Studio C#,\u041f\u043e\u043b\u044c\u0437\u043e\u0432\u0430\u0442\u0435\u043b\u044c \u041f\u041a,C#,Python,Java,SQL,SOLID,ASP.NET", "Kali,Windows,Bash,Cisco,Java,SQL,Linux,MySQL,Git", "Kotlin,Java,NodeJS,Python,Firebase,Git,Android,C++,SQL", "Linux,Java", "Linux,MySQL,Git,Python,HTML,CSS,JavaScript,SQL,\u0410\u0434\u043c\u0438\u043d\u0438\u0441\u0442\u0440\u0438\u0440\u043e\u0432\u0430\u043d\u0438\u0435 \u0441\u0435\u0440\u0432\u0435\u0440\u043e\u0432 Windows,Bash,Docker,Ansible,Terraform,k8s,AWS", "Lua,PostgreSQL,LAMP", "MS Excel, \u0430\u043d\u0430\u043b\u0438\u0442\u0438\u043a\u0430,\u0421\u0442\u0430\u0442\u0438\u0441\u0442\u0438\u043a\u0430", "MS Excel,1C: \u0411\u0443\u0445\u0433\u0430\u043b\u0442\u0435\u0440\u0438\u044f,MS Word,Adobe Acrobat,MS Data Analyzer,MS Outlook,MS PowerPoint,\u0424\u0438\u043d\u0430\u043d\u0441\u043e\u0432\u044b\u0439 \u0430\u043d\u0430\u043b\u0438\u0437,MS Access,CRM,\u0424\u0438\u043d\u0430\u043d\u0441\u043e\u0432\u0430\u044f \u043e\u0442\u0447\u0435\u0442\u043d\u043e\u0441\u0442\u044c,\u041f\u0430\u0440\u0443\u0441,\u0410\u043d\u0430\u043b\u0438\u0442\u0438\u0447\u0435\u0441\u043a\u043e\u0435 \u043c\u044b\u0448\u043b\u0435\u043d\u0438\u0435,\u0420\u0430\u0431\u043e\u0442\u0430 \u0441 \u0431\u043e\u043b\u044c\u0448\u0438\u043c \u043e\u0431\u044a\u0435\u043c\u043e\u043c \u0438\u043d\u0444\u043e\u0440\u043c\u0430\u0446\u0438\u0438,\u0420\u0430\u0431\u043e\u0442\u0430 \u0441 \u0431\u0430\u0437\u0430\u043c\u0438 \u0434\u0430\u043d\u043d\u044b\u0445,\u042d\u043b\u0435\u043a\u0442\u0440\u043e\u043d\u043d\u0430\u044f \u043f\u043e\u0447\u0442\u0430,\u0410\u043d\u0430\u043b\u0438\u0437 \u0444\u0438\u043d\u0430\u043d\u0441\u043e\u0432\u044b\u0445 \u043f\u043e\u043a\u0430\u0437\u0430\u0442\u0435\u043b\u0435\u0439,\u041e\u0446\u0435\u043d\u043a\u0430 \u0440\u0438\u0441\u043a\u043e\u0432,\u0414\u0435\u043b\u043e\u0432\u0430\u044f \u043f\u0435\u0440\u0435\u043f\u0438\u0441\u043a\u0430,\u0411\u044e\u0434\u0436\u0435\u0442\u0438\u0440\u043e\u0432\u0430\u043d\u0438\u0435,\u0410\u043d\u0430\u043b\u0438\u0437 \u0434\u0430\u043d\u043d\u044b\u0445,\u042d\u043a\u043e\u043d\u043e\u043c\u0438\u0447\u0435\u0441\u043a\u0438\u0439 \u0430\u043d\u0430\u043b\u0438\u0437,\u0410\u043d\u0430\u043b\u0438\u0437 \u0440\u0438\u0441\u043a\u043e\u0432,\u0410\u043d\u0430\u043b\u0438\u0442\u0438\u043a\u0430,\u0423\u043f\u0440\u0430\u0432\u043b\u0435\u043d\u0447\u0435\u0441\u043a\u0430\u044f \u043e\u0442\u0447\u0435\u0442\u043d\u043e\u0441\u0442\u044c,\u041d\u0430\u0432\u044b\u043a\u0438 \u043f\u0440\u0435\u0437\u0435\u043d\u0442\u0430\u0446\u0438\u0438,\u0424\u0438\u043d\u0430\u043d\u0441\u043e\u0432\u044b\u0439 \u043a\u043e\u043d\u0442\u0440\u043e\u043b\u044c,IFRS,1\u0421: \u041f\u0440\u0435\u0434\u043f\u0440\u0438\u044f\u0442\u0438\u0435 8,\u0420\u0430\u0437\u0440\u0430\u0431\u043e\u0442\u043a\u0430 \u0438\u043d\u0441\u0442\u0440\u0443\u043a\u0446\u0438\u0439", "MS Excel,MS Word,MS PowerPoint,MS Office,\u0420\u0430\u0431\u043e\u0442\u0430 \u0441 \u0431\u0430\u0437\u0430\u043c\u0438 \u0434\u0430\u043d\u043d\u044b\u0445,Python,VBA,\u0420\u0430\u0431\u043e\u0442\u0430 \u0441 \u0431\u043e\u043b\u044c\u0448\u0438\u043c \u043e\u0431\u044a\u0435\u043c\u043e\u043c \u0438\u043d\u0444\u043e\u0440\u043c\u0430\u0446\u0438\u0438,MS Outlook,\u0410\u043d\u0430\u043b\u0438\u0437 \u0434\u0430\u043d\u043d\u044b\u0445,\u0412\u044b\u0441\u043e\u043a\u0430\u044f \u0441\u043a\u043e\u0440\u043e\u0441\u0442\u044c \u043f\u0435\u0447\u0430\u0442\u0438,Power pivot,Power Query,HTML", "MS Excel,\u0410\u043d\u0430\u043b\u0438\u0437 \u0440\u044b\u043d\u043a\u0430,\u0410\u043d\u0430\u043b\u0438\u0437 \u0434\u0430\u043d\u043d\u044b\u0445,\u0410\u043d\u0433\u043b\u0438\u0439\u0441\u043a\u0438\u0439 \u044f\u0437\u044b\u043a,\u041c\u043e\u0442\u0438\u0432\u0430\u0446\u0438\u044f", "MS Office,Google Docs,\u0423\u0447\u0430\u0441\u0442\u0438\u0435 \u0432 \u0422\u0435\u043d\u0434\u0435\u0440\u0430\u0445", "MS Office,Internet,\u041f\u043e\u043b\u044c\u0437\u043e\u0432\u0430\u0442\u0435\u043b\u044c \u041f\u041a,\u041a\u043e\u043d\u0441\u0443\u043b\u044c\u0442\u0430\u043d\u0442 \u043f\u043b\u044e\u0441,\u041e\u0440\u0433\u0430\u043d\u0438\u0437\u0430\u0442\u043e\u0440\u0441\u043a\u0438\u0435 \u043d\u0430\u0432\u044b\u043a\u0438,\u0414\u0435\u043b\u043e\u0432\u0430\u044f \u043f\u0435\u0440\u0435\u043f\u0438\u0441\u043a\u0430,\u0414\u0435\u043b\u043e\u043f\u0440\u043e\u0438\u0437\u0432\u043e\u0434\u0441\u0442\u0432\u043e,\u0412\u043e\u0434\u0438\u0442\u0435\u043b\u044c\u0441\u043a\u043e\u0435 \u0443\u0434\u043e\u0441\u0442\u043e\u0432\u0435\u0440\u0435\u043d\u0438\u0435 \u043a\u0430\u0442\u0435\u0433\u043e\u0440\u0438\u0438 B,\u0413\u0440\u0430\u043c\u043e\u0442\u043d\u0430\u044f \u0440\u0435\u0447\u044c,\u0414\u0435\u043b\u043e\u0432\u043e\u0435 \u043e\u0431\u0449\u0435\u043d\u0438\u0435,\u0420\u0430\u0431\u043e\u0442\u0430 \u0441 \u043e\u0440\u0433\u0442\u0435\u0445\u043d\u0438\u043a\u043e\u0439,\u0420\u0430\u0431\u043e\u0442\u0430 \u0432 \u043a\u043e\u043c\u0430\u043d\u0434\u0435,\u041f\u0440\u043e\u0432\u0435\u0434\u0435\u043d\u0438\u0435 \u043f\u0440\u0435\u0437\u0435\u043d\u0442\u0430\u0446\u0438\u0439,\u0414\u043e\u043a\u0443\u043c\u0435\u043d\u0442\u043e\u043e\u0431\u043e\u0440\u043e\u0442,\u041f\u043e\u0438\u0441\u043a \u0438\u043d\u0444\u043e\u0440\u043c\u0430\u0446\u0438\u0438 \u0432 \u0438\u043d\u0442\u0435\u0440\u043d\u0435\u0442,Java,JavaRush", "MS Office,\u0420\u0430\u0431\u043e\u0442\u0430 \u0432 \u043a\u043e\u043c\u0430\u043d\u0434\u0435,Excel,Java,Landmark", "MS Outlook,Internet,\u0420\u0430\u0431\u043e\u0442\u0430 \u0441 \u043e\u0440\u0433\u0442\u0435\u0445\u043d\u0438\u043a\u043e\u0439,\u041e\u0444\u0438\u0441\u043d\u0430\u044f \u0442\u0435\u0445\u043d\u0438\u043a\u0430,MS Excel,MS Word,MS Visual Studio,Access,Adobe Photoshop,\u041f\u043e\u043b\u044c\u0437\u043e\u0432\u0430\u0442\u0435\u043b\u044c \u041f\u041a,\u0440\u0435\u0433\u0438\u0441\u0442\u0440\u0430\u0446\u0438\u044f \u0434\u043e\u043a\u0443\u043c\u0435\u043d\u0442\u0430\u0446\u0438\u0438,\u041f\u043e\u0438\u0441\u043a \u0438\u043d\u0444\u043e\u0440\u043c\u0430\u0446\u0438\u0438 \u0432 \u0438\u043d\u0442\u0435\u0440\u043d\u0435\u0442,Unity,\u0420\u0430\u0431\u043e\u0442\u0430 \u0441 \u0441\u0430\u0439\u0442\u043e\u043c,\u0443\u0441\u0442\u0430\u043d\u043e\u0432\u043a\u0430 \u0438 \u043e\u0431\u043d\u043e\u0432\u043b\u0435\u043d\u0438\u0435 \u041f\u041e", "MS SQL,C\u0438\u0441\u0442\u0435\u043c\u044b \u0443\u043f\u0440\u0430\u0432\u043b\u0435\u043d\u0438\u044f \u0431\u0430\u0437\u0430\u043c\u0438 \u0434\u0430\u043d\u043d\u044b\u0445,Java SE,Spring Framework,Java,\u041e\u041e\u041f,Git,\u0410\u043d\u0433\u043b\u0438\u0439\u0441\u043a\u0438\u0439 \u044f\u0437\u044b\u043a,HTML,XML,PostgreSQL,SQL", "MS SQL,JUnit,Java Core", "MS Word , Excell, Power point,\u0410\u043d\u0433\u043b\u0438\u0439\u0441\u043a\u0438\u0439 \u044f\u0437\u044b\u043a,\u0422\u0443\u0440\u0435\u0446\u043a\u0438\u0439 \u044f\u0437\u044b\u043a,C++,C,SQL,Swift,Xcode,MS Office,auto layout,Git,SQLite,MVC", "Machine learning: natural language processing, image recognition,\u0418\u043c\u0435\u0435\u0442\u0441\u044f \u0441\u0435\u0440\u0442\u0438\u0444\u0438\u043a\u0430\u0442 \u043e\u0442 \u041d\u0418\u0423 \u0412\u0428\u042d \u043f\u043e advanced NLP,\u0417\u0420\u041a \u041e\u0431 \u0438\u043d\u0444\u043e\u0440\u043c\u0430\u0446\u0438\u0438, \u0421\u0422 \u0420\u041a 1073 \u201c\u0421\u0440\u0435\u0434\u0441\u0442\u0432\u0430 \u043a\u0440\u0438\u043f\u0442\u043e\u0433\u0440\u0430\u0444\u0438\u0447\u0435\u0441\u043a\u043e\u0439 \u0437\u0430\u0449\u0438\u0442\u044b \u0438\u043d\u0444\u043e\u0440\u043c\u0430\u0446\u0438\u0438\u201d,https://github.com/Aygera,Python, JavaScript,Java", "Mathcad,Java,Git,MySQL,\u041e\u041e\u041f,AutoCAD", "Maven,Java,Telegram api,Git,\u041e\u041e\u041f,\u0426\u0435\u043b\u0435\u0443\u0441\u0442\u0440\u0435\u043c\u043b\u0451\u043d\u043d\u043e\u0441\u0442\u044c,\u041e\u0431\u0443\u0447\u0430\u0435\u043c\u043e\u0441\u0442\u044c,\u041f\u0440\u0430\u0433\u043c\u0430\u0442\u0438\u0447\u043d\u043e\u0441\u0442\u044c,\u0410\u043d\u0430\u043b\u0438\u0442\u0438\u0447\u0435\u0441\u043a\u043e\u0435 \u043c\u044b\u0448\u043b\u0435\u043d\u0438\u0435", "MySQL,Ajax,HTML,JavaScript,jQuery,Git,Linux,CSS3,Java,SQL,\u041e\u041e\u041f,Bootstrap,Hibernate ORM,HQL,Spring Framework,Java 8,Spring Security,REST/JSON,Maven,Thymeleaf,Java Servlets,Trello,Java EE", "MySQL,CSS,Git,HTML5,PostgreSQL,SQL,Bootstrap,Java SE,Spring Framework,Hibernate ORM,Apache Maven,Apache Tomcat,HTML,JDBC,\u041e\u041e\u041f,CSS3,Thymeleaf,Docker,Swagger,Kubernetes", "MySQL,Hibernate ORM,Spring Framework,Git,Java,Redis,MongoDB,JUnit,MockMvc,JDBC,Docker,Liquibase,PostgreSQL", "MySQL,Java,Java Database", "MySQL,Linux,Git,SQL,Spring Framework,Apache Maven,Mybatis,Rest API,\u041e\u041e\u041f,Design Patterns,HTML,XML,SOLID,Spring MVC,Spring Boot,Tomcat,Njinx,Log4j,SSH,Java 8,Java 11,JUnit 5,JDBC,JSON,PostgreSQL,Hibernate ORM,NoSQL,MongoDB,Docker", "MySQL,SQL,Git,Java,go,golang", "Node.js,JavaScript,ES6,MongoDB,PostgreSQL,Redis,Golang,Express,Mongoose,WS,Docker,Docker Compose,OpenAPI,GraphQL,Protoc,Ubuntu", "Node.js,React,Redux,CSS,HTML5,SQL Server Express,Internet,JavaScript,CSS3,Bootstrap,Git,HTTP,\u041f\u0440\u0430\u0432\u0430 \u043a\u0430\u0442\u0435\u0433\u043e\u0440\u0438\u0438 \u0412", "Oracle Pl/SQL,Android,Android SDK,Android studio,Kotlin,Firebase,Java", "Oracle Pl/SQL,Java,SQL,\u041e\u041e\u041f,Git,Android", "Oracle Pl/SQL,SQL,MS SQL", "Oracle Pl/SQL,XML/Xslt,VBA", "PHP,HTML,JavaScript,Yii2 Framework,Oracle Pl/SQL,C\u0438\u0441\u0442\u0435\u043c\u0430 \u0443\u043f\u0440\u0430\u0432\u043b\u0435\u043d\u0438\u044f \u0432\u0435\u0440\u0441\u0438\u044f\u043c\u0438 (git),CSS,\u041e\u041e\u041f,Java", "PHP,Yii,Java,HTML,HTML5,CSS3,JavaScript,\u0412\u0435\u0431-\u043f\u0440\u043e\u0433\u0440\u0430\u043c\u043c\u0438\u0440\u043e\u0432\u0430\u043d\u0438\u0435,Spring Framework,Spring boot", "PostgreSQL,JDBC,Java Core,JUnit,SQL,MySQL,Git,Apache Maven,Apache Tomcat,Spring Framework,Java EE,\u041e\u041e\u041f,Hibernate ORM", "PostgreSQL,Java SE,Hibernate ORM,\u0421\u0423\u0411\u0414,MS Office,Git,Apache Maven,Eclipse", "PostgreSQL,Java,Java SE,Spring Framework,\u041e\u041e\u041f,SQL,Git,JDBC,Intellij IDEA,\u0423\u043c\u0435\u043d\u0438\u0435 \u0440\u0430\u0431\u043e\u0442\u0430\u0442\u044c \u0432 \u043a\u043e\u043b\u043b\u0435\u043a\u0442\u0438\u0432\u0435,Hibernate ORM,Atlassian Jira,Linux", "PostgreSQL,Linux,Git,MS Office,\u041e\u041e\u041f,Pascal,Python,Flask", "PostgreSQL,\u041e\u041e\u041f,spring boot,Java,JPA,Hibernate ORM,Java SE,MVC,RabbitMQ,spring data,Mockito,Git", "Python,CSS3,HTML5,Java,MS SQL,PHP,\u041f\u043e\u0438\u0441\u043a \u0438\u043d\u0444\u043e\u0440\u043c\u0430\u0446\u0438\u0438 \u0432 \u0438\u043d\u0442\u0435\u0440\u043d\u0435\u0442,\u0420\u0430\u0431\u043e\u0442\u0430 \u0432 \u043a\u043e\u043c\u0430\u043d\u0434\u0435,Git,Linux,\u0412\u0435\u0440\u0441\u0442\u043a\u0430,Django Framework", "Python,Django Framework,Flask,Java,Spring Framework,Git,MySQL,PostgreSQL,SQL,Golang,C++,JavaScript,HTML,CSS,\u041e\u041e\u041f,REST", "Python,Django Framework,Git,HTML,CSS,JavaScript,PostgreSQL,MongoDB,Linux", "Python,Django Framework,MySQL,HTML,JavaScript,CSS,Git,Bootstrap,PostgreSQL,RabbitMQ,Docker,djangorestframework", "Python,Git,C#,Jupiter,PyCharm,pandas,MySQL,\u041e\u041e\u041f,\u041c\u0430\u0442\u0435\u043c\u0430\u0442\u0438\u0447\u0435\u0441\u043a\u0430\u044f \u0441\u0442\u0430\u0442\u0438\u0441\u0442\u0438\u043a\u0430,\u041c\u0430\u0442\u0435\u043c\u0430\u0442\u0438\u0447\u0435\u0441\u043a\u0438\u0439 \u0430\u043d\u0430\u043b\u0438\u0437,numpy,NoSQL", "Python,Git,\u043f\u0440\u043e\u0433\u0440\u0430\u043c\u043c\u0438\u0440\u043e\u0432\u0430\u043d\u0438\u0435,Delphi,Pascal,\u041f\u043e\u043d\u0438\u043c\u0430\u043d\u0438\u0435 \u043e\u0441\u043d\u043e\u0432 \u043f\u0440\u043e\u0433\u0440\u0430\u043c\u043c\u0438\u0440\u043e\u0432\u0430\u043d\u0438\u0435,\u041e\u0441\u043d\u043e\u0432\u044b \u041e\u041e\u041f,\u041f\u043e\u043d\u0438\u043c\u0430\u043d\u0438\u0435, \u043a\u0430\u043a \u0440\u0430\u0431\u043e\u0442\u0430\u044e\u0442 \u043f\u043e\u0442\u043e\u043a\u0438/\u043f\u0440\u043e\u0446\u0435\u0441\u0441\u044b,\u0430\u0441\u0441\u0438\u043d\u0445\u0440\u043e\u043d\u043e\u0441\u0442\u044c \u0432 Python,\u0417\u043d\u0430\u043a\u043e\u043c \u0441 \u043f\u0430\u0442\u0442\u0435\u0440\u043d\u043e\u043c \u043f\u0440\u043e\u0435\u043a\u0442\u0438\u0440\u043e\u0432\u0430\u043d\u0438\u044f \u00ab\u0421\u043e\u0441\u0442\u043e\u044f\u043d\u0438\u0435\u00bb,\u0428\u0430\u0431\u043b\u043e\u043d\u043d\u044b\u0439 \u043c\u0435\u0442\u043e\u0434,\u0440\u0430\u0437\u0440\u0430\u0431\u043e\u0442\u043a\u0430 \u0437\u0430\u0434\u0430\u0447 \u043f\u043e \u043f\u0440\u043e\u0433\u0440\u0430\u043c\u043c\u0438\u0440\u043e\u0432\u0430\u043d\u0438\u044e,CSV,JSON, XML, YAML,\u0411\u0430\u0437\u043e\u0432\u043e\u0435 \u0437\u043d\u0430\u043d\u0438\u0435 SQL,\u043e\u0441\u043d\u043e\u0432\u043d\u044b\u0435 \u0441\u0442\u0440\u0443\u043a\u0442\u0443\u0440\u044b \u0434\u0430\u043d\u043d\u044b\u0445 \u0438 \u0430\u043b\u0433\u043e\u0440\u0438\u0442\u043c\u044b,\u0417\u043d\u0430\u043d\u0438\u0435 \u043e\u0441\u043d\u043e\u0432\u044b \u043e\u043f\u0435\u0440\u0430\u0446\u0438\u043e\u043d\u043d\u044b\u0445 \u0441\u0438\u0441\u0442\u0435\u043c,\u043f\u0440\u0438\u043d\u0446\u0438\u043f\u044b \u043a\u043b\u0438\u0435\u043d\u0442-\u0441\u0435\u0440\u0432\u0435\u0440\u043d\u043e\u0433\u043e \u0441\u0435\u0442\u0435\u0432\u043e\u0433\u043e \u0432\u0437\u0430\u0438\u043c\u043e\u0434\u0435\u0439\u0441\u0442\u0432\u0438\u044f (http, tcp/ip);,pyenv,PyCharm,\u0417\u043d\u0430\u043d\u0438\u0435 \u043f\u0440\u0438\u043d\u0446\u0438\u043f\u043e\u0432 \u0440\u0430\u0431\u043e\u0442\u044b HTTP,\u0421\u0423\u0411\u0414", "Python,Java,C/C++,JavaScript,HTML,CSS,Android SDK,Unity,Oracle Pl/SQL,\u0410\u043b\u0433\u043e\u0440\u0438\u0442\u043c\u044b,\u0421\u0442\u0440\u0443\u043a\u0442\u0443\u0440\u044b \u0414\u0430\u043d\u043d\u044b\u0445", "Python,Java,Django Framework,JavaScript,HTML,CSS,jQuery,Ajax,SQL,\u041e\u041e\u041f,Spring Framework,Jenkins,Git,Apache Maven,Scrum,Atlassian Jira,CorelDRAW,PHP,HTML5,MS SQL,Adobe Photoshop,MySQL,Hibernate ORM", "Python,Java,SQLite,Flask,Socket,async.io,JavaFX", "Python,JavaScript,C++,SQL,Git,XML,\u041e\u041e\u041f,SVN,HTML,\u0423\u043f\u0440\u0430\u0432\u043b\u0435\u043d\u0438\u0435 \u043f\u0440\u043e\u0435\u043a\u0442\u0430\u043c\u0438,\u0423\u043f\u0440\u0430\u0432\u043b\u0435\u043d\u0438\u0435 \u043f\u0435\u0440\u0441\u043e\u043d\u0430\u043b\u043e\u043c,\u0412\u0435\u0434\u0435\u043d\u0438\u0435 \u043f\u0435\u0440\u0435\u0433\u043e\u0432\u043e\u0440\u043e\u0432,\u0423\u043f\u0440\u0430\u0432\u043b\u0435\u043d\u0438\u0435 \u043f\u0440\u043e\u0434\u0430\u0436\u0430\u043c\u0438,\u041f\u0440\u044f\u043c\u044b\u0435 \u043f\u0440\u043e\u0434\u0430\u0436\u0438,\u041f\u043e\u0438\u0441\u043a \u0438 \u043f\u0440\u0438\u0432\u043b\u0435\u0447\u0435\u043d\u0438\u0435 \u043a\u043b\u0438\u0435\u043d\u0442\u043e\u0432,\u041e\u0440\u0433\u0430\u043d\u0438\u0437\u0430\u0442\u043e\u0440\u0441\u043a\u0438\u0435 \u043d\u0430\u0432\u044b\u043a\u0438", "Python,JavaScript,Django Framework,Git,PostgreSQL,Redis,Docker", "Python,JavaScript,PHP,CSS,HTML,Git,Yii2,Django,PostgreSQL,SQL", "Python,Linux,MySQL,Git,CSS,PostgreSQL,Django Framework,SQL,Bash,HTML5,\u041e\u041e\u041f,R,MS Excel,Docker,Mathematical Statistics,Linear Algebra,Functional Analysis,Optimisation,Data Analysis,Data Mining,Data Science,Machine Learning,C++,C,Corporate Finance,Financial Modelling,Wolfram Matematica", "Python,SQL,C++,ERP,SolidWorks,MS Outlook,MS Office,Git", "Python,SQL,Django Framework,\u0420\u0430\u0431\u043e\u0442\u0430 \u0441 \u0431\u0430\u0437\u0430\u043c\u0438 \u0434\u0430\u043d\u043d\u044b\u0445,Pandas,Numpy,Machine learning,MS Excel,\u0410\u043d\u0430\u043b\u0438\u0442\u0438\u043a\u0430,Git,PostgreSQL,Anaplan,VBA", "Python,SQL,MySQL,Git,Linux,matplotlib,NumPy,OpenPyxl,GitHub,Pandas,FastApi,Docker,Unicorn", "Python,SQL,\u041e\u041e\u041f,HTML,CSS,FastAPI,Redis,Django Framework,PostgreSQL,Git,HTML5,Linux,Bootstrap,Django", "Python,Ubuntu,\u041e\u041e\u041f,\u0411\u0430\u0437\u044b \u0434\u0430\u043d\u043d\u044b\u0445,Git,JavaScript", "Python,\u041e\u041e\u041f,Git,MS Excel,\u0410\u043d\u0430\u043b\u0438\u0437 \u0440\u044b\u043d\u043a\u0430,\u0421\u0438\u0441\u0442\u0435\u043c\u043d\u044b\u0439 \u0430\u043d\u0430\u043b\u0438\u0437,Django Framework", "Qt,C/C++,\u041f\u043e\u043b\u044c\u0437\u043e\u0432\u0430\u0442\u0435\u043b\u044c \u041f\u041a,\u0410\u043d\u0433\u043b\u0438\u0439\u0441\u043a\u0438\u0439 \u044f\u0437\u044b\u043a,\u041f\u043e\u0438\u0441\u043a \u0438\u043d\u0444\u043e\u0440\u043c\u0430\u0446\u0438\u0438 \u0432 \u0438\u043d\u0442\u0435\u0440\u043d\u0435\u0442,\u0420\u0430\u0431\u043e\u0442\u0430 \u0432 \u043a\u043e\u043c\u0430\u043d\u0434\u0435,\u0420\u0430\u0431\u043e\u0442\u0430 \u0441 \u0431\u0430\u0437\u0430\u043c\u0438 \u0434\u0430\u043d\u043d\u044b\u0445,Unix,SQL,QML,Python,visual studio code,Git", "React Native,Git,Npm,Redux,Animation,JavaScript,MySQL,jQuery,HTML,CSS,Ajax,Node.js,Nginx,Next. Js,Linux,Figma,Swg,\u0418 \u043c\u043d\u043e\u0433\u043e\u0435 \u0434\u0440\u0443\u0433\u043e\u0435,Bootstrap,ArangoBD,\u0423\u043f\u0440\u0430\u0432\u043b\u0435\u043d\u0438\u0435 \u043f\u0440\u043e\u0435\u043a\u0442\u0430\u043c\u0438,SQL,React", "React, Redux", "React,HTML5,JavaScript,CSS3,\u041e\u041e\u041f", "SOLID,STL,C/C++,\u041e\u041e\u041f,Multithread Programming,Git", "SQL,C++,Java,MS Visual Studio,\u0421\u0442\u0430\u0442\u0438\u0441\u0442\u0438\u0447\u0435\u0441\u043a\u0438\u0439 \u0430\u043d\u0430\u043b\u0438\u0437,Adobe Photoshop,GIS,QGIS,HTML,CSS,JavaScript,Kompas,Solid Works,3D Max,Sony Vegas,Deductor,MS Excel", "SQL,CSS3,Linux,Git,Python,HTML5,C/C++,MySQL,\u041e\u041e\u041f,MS SQL,UML,github,dev c++,Adobe Firework,JavaScript,ms azure,Atlassian Jira,XML,MS SQL Server,Unreal Engine 4,Bootstrap,\u0420\u0430\u0431\u043e\u0442\u0430 \u0432 \u043a\u043e\u043c\u0430\u043d\u0434\u0435,QA,Unity,Sass,Less,Android,Flutter,Android SDK,Trello", "SQL,Git/GitHub,Java", "SQL,HTML5,CSS3,Git,Java core", "SQL,Java,Intellij IDEA,Git", "SQL,JavaScript,CSS,Python,Pascal,HTML,Git,react,redux,Transact-SQL,\u041c\u0430\u0442\u0435\u043c\u0430\u0442\u0438\u0447\u0435\u0441\u043a\u0430\u044f \u0441\u0442\u0430\u0442\u0438\u0441\u0442\u0438\u043a\u0430,C#,Java", "SQL,Maven,Git,Lombok,H2,Linux,\u041e\u041e\u041f,MySQL,Java,PostgreSQL,JUnit", "SQL,XML,Eclipse,Git,Atlassian Jira,Java,\u041e\u041e\u041f,HTML,CSS,MS SQL", "SQL,\u041e\u041e\u041f,\u0411\u0430\u0437\u044b \u0434\u0430\u043d\u043d\u044b\u0445,\u0410\u043b\u0433\u043e\u0440\u0438\u0442\u043c\u044b,1\u0421 \u043f\u0440\u043e\u0433\u0440\u0430\u043c\u043c\u0438\u0440\u043e\u0432\u0430\u043d\u0438\u0435,XML,\u041c\u0430\u0442\u0435\u043c\u0430\u0442\u0438\u0447\u0435\u0441\u043a\u043e\u0435 \u043c\u043e\u0434\u0435\u043b\u0438\u0440\u043e\u0432\u0430\u043d\u0438\u0435,Git,HTML,Java SE,MS Excel,C++", "SQL,\u0422\u0435\u0441\u0442\u0438\u0440\u043e\u0432\u0430\u043d\u0438\u0435,Java,Git,\u041e\u041e\u041f,Intellij IDEA,Apache Maven,java core", "SWOT-\u0430\u043d\u0430\u043b\u0438\u0437,Pest-\u0410\u043d\u0430\u043b\u0438\u0437,Python (Junior),SQL,Excel,\u0430\u043d\u0430\u043b\u0438\u0442\u0438\u0447\u0435\u0441\u043a\u0438\u0435 \u0441\u043f\u043e\u0441\u043e\u0431\u043d\u043e\u0441\u0442\u0438,\u0413\u0440\u0430\u043c\u043e\u0442\u043d\u0430\u044f \u0440\u0435\u0447\u044c,, \u043d\u0430\u0432\u044b\u043a\u0438 \u0440\u0430\u0431\u043e\u0442\u044b \u0441 \u0431\u0430\u0437\u0430\u043c\u0438 \u0434\u0430\u043d\u043d\u044b\u0445 \u0438 \u043c\u0430\u0441\u0441\u0438\u0432\u0430\u043c\u0438 \u0438\u043d\u0444\u043e\u0440\u043c\u0430\u0446\u0438\u0438,MS \u043effice,SPSS", "SolidWorks,3D \u041c\u043e\u0434\u0435\u043b\u0438\u0440\u043e\u0432\u0430\u043d\u0438\u0435,Html/css,PyCharm,Django Framework,Docker,MySQL,Vue.js,Linux,Git,JavaScript,HTML,CSS,Python,PostgreSQL,Django Rest Framework,Ubuntu Server", "Spring Framework,Java,Hibernate ORM,Apache Tomcat,Git,SQL,Apache Maven,PostgreSQL,\u041e\u041e\u041f,REST,Spring Boot,Spring Security,Spring MVC", "Spring Framework,Java,Hibernate ORM,MySQL,Git,JSP,SQL,Apache Maven,Java EE,PostgreSQL,JUnit,JDBC,Ajax,Java Servlets,Spring Boot", "Spring Framework,Java,Hibernate ORM,SQL,\u041e\u041e\u041f,Android,PostgreSQL,Apache Maven,JUnit,Git,Android SDK,Kotlin,MVVM,Dagger2,Retrofit,Glide,Room,okHttp,RxJava,Navigation Component", "Spring Framework,Java,Maven,MySQL,PostgreSQL,Intellij IDEA,Git,Linux", "TCP/IP,\u041d\u0430\u0441\u0442\u0440\u043e\u0439\u043a\u0430 \u041f\u041e,\u041f\u043e\u043b\u044c\u0437\u043e\u0432\u0430\u0442\u0435\u043b\u044c \u041f\u041a,\u041d\u0430\u0441\u0442\u0440\u043e\u0439\u043a\u0430 \u0441\u0435\u0442\u0435\u0432\u044b\u0445 \u043f\u043e\u0434\u043a\u043b\u044e\u0447\u0435\u043d\u0438\u0439,\u0410\u043d\u0433\u043b\u0438\u0439\u0441\u043a\u0438\u0439 \u044f\u0437\u044b\u043a,Processing language,Java,JUnit,Apache Maven,Java SE,PostgreSQL,Intellij IDEA,Google Docs,HTML,Java Servlets,JSP,Apache Tomcat,\u0411\u0430\u0437\u044b \u0434\u0430\u043d\u043d\u044b\u0445,Git,TestNG,Java EE,Java 8", "Visual Studio C#,MS SQL Server,Transact-SQL,Windows Forms,\u0420\u0430\u0437\u0440\u0430\u0431\u043e\u0442\u043a\u0430 \u043f\u0440\u043e\u0441\u0442\u044b\u0445 \u0440\u0430\u0437\u0432\u0438\u0432\u0430\u044e\u0449\u0438\u0445 \u0438\u0433\u0440,MS Access,MS Visual C++,\u0420\u0430\u0431\u043e\u0442\u0430 \u0441 \u0431\u0430\u0437\u0430\u043c\u0438 \u0434\u0430\u043d\u043d\u044b\u0445,\u0420\u0430\u0431\u043e\u0442\u0430 \u0432 \u043a\u043e\u043c\u0430\u043d\u0434\u0435,\u041f\u0440\u043e\u0435\u043a\u0442\u0438\u0440\u043e\u0432\u0430\u043d\u0438\u0435 \u043f\u043e\u043b\u044c\u0437\u043e\u0432\u0430\u0442\u0435\u043b\u044c\u0441\u043a\u0438\u0445 \u0438\u043d\u0442\u0435\u0440\u0444\u0435\u0439\u0441\u043e\u0432,SQLite,\u041a\u043e\u043c\u043f\u0430\u0441-3D,MS Visio,Archi,PHP", "Visual Studio C#,\u041f\u0430\u0442\u0442\u0435\u0440\u043d\u044b \u043f\u0440\u043e\u0433\u0440\u0430\u043c\u043c\u0438\u0440\u043e\u0432\u0430\u043d\u0438\u044f \u0421# : \u0410\u0434\u0430\u043f\u0442\u0435\u0440, \u0421\u0442\u0440\u0430\u0442\u0435\u0433\u0438\u044f.,T-SQL \u0437\u043d\u0430\u044e \u043a\u0430\u043a \u0440\u0430\u0431\u043e\u0442\u0430\u0435\u0442 \u043e\u0441\u043d\u043e\u0432\u043d\u044b\u0435 \u043a\u043e\u043c\u0430\u043d\u0434\u044b : Insert, Order by.,\u041e\u041e\u041f : \u0437\u043d\u0430\u044e \u043a\u0430\u043a \u043f\u0440\u0438\u043c\u0435\u043d\u044f\u0442\u044c \u043d\u0430\u0441\u043b\u0435\u0434\u043e\u0432\u0430\u043d\u0438\u0435 \u0438 \u0438\u043d\u043a\u0430\u043f\u0441\u0443\u043b\u044f\u0446\u0438\u044e \u0438 \u043f\u043e\u043b\u0438\u043c\u043e\u0440\u0444\u0438\u0437\u043c \u043d\u0430 \u043f\u0440\u0430\u043a\u0442\u0438\u043a\u0435,\u041f\u0440\u0430\u043a\u0442\u0438\u043a\u043e\u0432\u0430\u043b\u0441\u044f \u0441 Linq : where * in * , \u0438\u043c\u0435\u044e \u043d\u0435 \u0431\u043e\u043b\u044c\u0448\u043e\u0439 \u043e\u043f\u044b\u0442 \u0432 \u0440\u0435\u0430\u043b\u0438\u0437\u0430\u0446\u0438\u0438,\u0418\u0437\u0443\u0447\u0430\u044e ASP.core \u0441 \u043f\u043e\u0434\u043a\u043b\u044e\u0447\u0435\u043d\u0438\u0435\u043c \u0431\u0434(ms sql server) \u0447\u0435\u0440\u0435\u0437 entity framework (\u0430\u0432\u0442\u043e\u0441\u0432\u043e\u0439\u0441\u0442\u0432\u0430),\u0421\u0438\u0441\u0442\u0435\u043c\u0430 \u043a\u043e\u043d\u0442\u0440\u043e\u043b\u044f \u0432\u0435\u0440\u0441\u0438\u0439 GIT Hub", "Windows, Linux, MS Office, \u0437\u043d\u0430\u043d\u0438\u0435 C++, Java, HTML, PHP \u0438 \u043f\u0440\u0438\u043d\u0446\u0438\u043f\u044b \u041e\u041e\u041f \u0415\u0441\u0442\u044c \u043e\u043f\u044b\u0442 \u0440\u0430\u0431\u043e\u0442\u044b \u0441 \u044d\u043b\u0435\u043a\u0442\u0440\u043e\u043d\u0438\u043a\u043e,\u041d\u0430\u0441\u0442\u0440\u043e\u0439\u043a\u0430 \u0441\u0435\u0442\u0435\u0432\u044b\u0445 \u043f\u043e\u0434\u043a\u043b\u044e\u0447\u0435\u043d\u0438\u0439,Linux,\u0410\u0434\u043c\u0438\u043d\u0438\u0441\u0442\u0440\u0438\u0440\u043e\u0432\u0430\u043d\u0438\u0435 \u0441\u0435\u0442\u0435\u0432\u043e\u0433\u043e \u043e\u0431\u043e\u0440\u0443\u0434\u043e\u0432\u0430\u043d\u0438\u044f,\u0410\u0434\u043c\u0438\u043d\u0438\u0441\u0442\u0440\u0438\u0440\u043e\u0432\u0430\u043d\u0438\u0435 \u0441\u0435\u0440\u0432\u0435\u0440\u043e\u0432 Windows,HTML,\u0420\u0435\u043c\u043e\u043d\u0442 \u041f\u041a,\u041d\u0430\u0441\u0442\u0440\u043e\u0439\u043a\u0430 \u041f\u041a,\u0417\u0430\u043a\u043b\u044e\u0447\u0435\u043d\u0438\u0435 \u0434\u043e\u0433\u043e\u0432\u043e\u0440\u043e\u0432,TCP/IP,\u041c\u043e\u043d\u0442\u0430\u0436 \u043e\u0431\u043e\u0440\u0443\u0434\u043e\u0432\u0430\u043d\u0438\u044f,\u0422\u0435\u0445\u043d\u0438\u0447\u0435\u0441\u043a\u0430\u044f \u044d\u043a\u0441\u043f\u043b\u0443\u0430\u0442\u0430\u0446\u0438\u044f,\u041d\u0430\u0441\u0442\u0440\u043e\u0439\u043a\u0430 \u041f\u041e,Windows 7,Wifi networks,\u041d\u0430\u0441\u0442\u0440\u043e\u0439\u043a\u0430 \u0441\u0435\u0440\u0432\u0435\u0440\u043e\u0432,\u0418\u043d\u0444\u043e\u0440\u043c\u0430\u0446\u0438\u043e\u043d\u043d\u044b\u0435 \u0442\u0435\u0445\u043d\u043e\u043b\u043e\u0433\u0438\u0438,\u0422\u0435\u0445\u043d\u0438\u0447\u0435\u0441\u043a\u043e\u0435 \u043e\u0431\u0441\u043b\u0443\u0436\u0438\u0432\u0430\u043d\u0438\u0435,\u0422\u0435\u0445\u043d\u0438\u0447\u0435\u0441\u043a\u0430\u044f \u043f\u043e\u0434\u0434\u0435\u0440\u0436\u043a\u0430,\u0410\u0434\u043c\u0438\u043d\u0438\u0441\u0442\u0440\u0438\u0440\u043e\u0432\u0430\u043d\u0438\u0435,\u041f\u043e\u0438\u0441\u043a \u0438\u043d\u0444\u043e\u0440\u043c\u0430\u0446\u0438\u0438 \u0432 \u0438\u043d\u0442\u0435\u0440\u043d\u0435\u0442,\u041a\u043e\u043d\u0441\u0443\u043b\u044c\u0442\u0438\u0440\u043e\u0432\u0430\u043d\u0438\u0435,\u041a\u043e\u043d\u0442\u0440\u043e\u043b\u044c \u0438\u0441\u043f\u0440\u0430\u0432\u043d\u043e\u0441\u0442\u0438 \u043e\u0431\u043e\u0440\u0443\u0434\u043e\u0432\u0430\u043d\u0438\u044f,Objective-C,Python,Unity (C#),PyCharm,X-Code", "https://github.com/altair1984/Cross_Zero.git", "java sql android", "\u0410\u0434\u043c\u0438\u043d\u0438\u0441\u0442\u0440\u0430\u0442\u0438\u0432\u043d\u0430\u044f \u043f\u043e\u0434\u0434\u0435\u0440\u0436\u043a\u0430 \u0440\u0443\u043a\u043e\u0432\u043e\u0434\u0438\u0442\u0435\u043b\u044f,\u0412\u044b\u0441\u043e\u043a\u0430\u044f \u0441\u043a\u043e\u0440\u043e\u0441\u0442\u044c \u043f\u0435\u0447\u0430\u0442\u0438,\u0422\u0435\u0445\u043d\u0438\u0447\u0435\u0441\u043a\u0438\u0439 \u043f\u0435\u0440\u0435\u0432\u043e\u0434,\u0438\u0441\u043f\u043e\u043b\u043d\u0435\u043d\u0438\u0435 \u043f\u043e\u0440\u0443\u0447\u0435\u043d\u0438\u0439 \u0440\u0443\u043a\u043e\u0432\u043e\u0434\u0438\u0442\u0435\u043b\u044f,\u0423\u0441\u0442\u043d\u044b\u0439 \u043f\u0435\u0440\u0435\u0432\u043e\u0434,\u0410\u043d\u0433\u043b\u0438\u0439\u0441\u043a\u0438\u0439 \u044f\u0437\u044b\u043a,\u041f\u043e\u043b\u044c\u0437\u043e\u0432\u0430\u0442\u0435\u043b\u044c \u041f\u041a,MS PowerPoint,MS Outlook,\u0414\u0435\u043b\u043e\u0432\u043e\u0435 \u043e\u0431\u0449\u0435\u043d\u0438\u0435,\u041e\u0440\u0433\u0430\u043d\u0438\u0437\u0430\u0442\u043e\u0440\u0441\u043a\u0438\u0435 \u043d\u0430\u0432\u044b\u043a\u0438,\u0420\u0430\u0431\u043e\u0442\u0430 \u0432 \u043a\u043e\u043c\u0430\u043d\u0434\u0435,\u041f\u0438\u0441\u044c\u043c\u0435\u043d\u043d\u044b\u0439 \u043f\u0435\u0440\u0435\u0432\u043e\u0434,MS Word,MS Excel,\u0421\u043a\u043b\u0430\u0434\u0441\u043a\u0430\u044f \u043b\u043e\u0433\u0438\u0441\u0442\u0438\u043a\u0430,SAP,Autodesk 3ds Max,\u0410\u0434\u043c\u0438\u043d\u0438\u0441\u0442\u0440\u0438\u0440\u043e\u0432\u0430\u043d\u0438\u0435 \u0441\u0430\u0439\u0442\u043e\u0432", "\u0410\u0434\u043c\u0438\u043d\u0438\u0441\u0442\u0440\u0438\u0440\u043e\u0432\u0430\u043d\u0438\u0435,\u0420\u0430\u0437\u0440\u0430\u0431\u043e\u0442\u043a\u0430 \u041f\u041e,\u0420\u0430\u0437\u0440\u0430\u0431\u043e\u0442\u043a\u0430 \u0441\u0430\u0439\u0442\u0430,HTML,CSS,JavaScript,PHP,C#,Python,Java", "\u0410\u0434\u043c\u0438\u043d\u0438\u0441\u0442\u0440\u0438\u0440\u043e\u0432\u0430\u043d\u0438\u0435,\u0420\u0435\u043c\u043e\u043d\u0442 \u041f\u041a,\u041d\u0430\u0441\u0442\u0440\u043e\u0439\u043a\u0430 \u0441\u0435\u0442\u0435\u0432\u044b\u0445 \u043f\u043e\u0434\u043a\u043b\u044e\u0447\u0435\u043d\u0438\u0439,HTML,\u041d\u0430\u0441\u0442\u0440\u043e\u0439\u043a\u0430 \u041f\u041a,CSS,\u041d\u0430\u0441\u0442\u0440\u043e\u0439\u043a\u0430 \u041f\u041e,\u0412\u043e\u0434\u0438\u0442\u0435\u043b\u044c\u0441\u043a\u043e\u0435 \u0443\u0434\u043e\u0441\u0442\u043e\u0432\u0435\u0440\u0435\u043d\u0438\u0435 \u043a\u0430\u0442\u0435\u0433\u043e\u0440\u0438\u0438 B,PHP,\u0421\u0431\u043e\u0440\u043a\u0430 \u041f\u041a,HTML5,SQL,Zabbix,MySQL", "\u0410\u043a\u0442\u0438\u0432\u043d\u044b\u0439,\u041c\u043d\u043e\u0433\u043e\u0437\u0430\u0434\u0430\u0447\u043d\u043e\u0441\u0442\u044c", "\u0410\u043d\u0430\u043b\u0438\u0442\u0438\u0447\u0435\u0441\u043a\u043e\u0435 \u043c\u044b\u0448\u043b\u0435\u043d\u0438\u0435", "\u0410\u043d\u0433\u043b\u0438\u0439\u0441\u043a\u0438\u0439 \u044f\u0437\u044b\u043a,C#,Java,JavaScript,Android SDK,\u0417\u043d\u0430\u043d\u0438\u0435 \u0431\u0430\u0437\u043e\u0432\u044b\u0445 \u043f\u0440\u0438\u043d\u0446\u0438\u043f\u043e\u0432 \u0442\u0435\u0441\u0442\u0438\u0440\u043e\u0432\u0430\u043d\u0438\u044f,HTML,CSS,\u041e\u041e\u041f", "\u0410\u043d\u0433\u043b\u0438\u0439\u0441\u043a\u0438\u0439 \u044f\u0437\u044b\u043a,CODESYS,\u0410\u0421\u0423 \u0422\u041f,IEC 61131-3,Big Data,Java EE,Bootstrap,Angular,HTML5,CSS,JavaScript,MySQL,jQuery,Git,GitLab,Node.js,Visual Studio Code,Python,\u041e\u041e\u041f,SQL,Java,Spring Framework,Apache Maven,XML,Linux,REST API,Intellij IDEA,MVC,Jupyter Notebook,JDBC", "\u0410\u043d\u0433\u043b\u0438\u0439\u0441\u043a\u0438\u0439 \u044f\u0437\u044b\u043a,\u041f\u043e\u043b\u044c\u0437\u043e\u0432\u0430\u0442\u0435\u043b\u044c \u041f\u041a,\u0412\u0435\u0434\u0435\u043d\u0438\u0435 \u043f\u0435\u0440\u0435\u0433\u043e\u0432\u043e\u0440\u043e\u0432,\u0412\u043e\u0434\u0438\u0442\u0435\u043b\u044c\u0441\u043a\u043e\u0435 \u0443\u0434\u043e\u0441\u0442\u043e\u0432\u0435\u0440\u0435\u043d\u0438\u0435 \u043a\u0430\u0442\u0435\u0433\u043e\u0440\u0438\u0438 B,\u0413\u0440\u0430\u043c\u043e\u0442\u043d\u0430\u044f \u0440\u0435\u0447\u044c,\u0414\u0435\u043b\u043e\u0432\u043e\u0435 \u043e\u0431\u0449\u0435\u043d\u0438\u0435,\u0414\u0435\u043b\u043e\u0432\u0430\u044f \u043a\u043e\u043c\u043c\u0443\u043d\u0438\u043a\u0430\u0446\u0438\u044f,\u041f\u043e\u0438\u0441\u043a \u0438\u043d\u0444\u043e\u0440\u043c\u0430\u0446\u0438\u0438 \u0432 \u0438\u043d\u0442\u0435\u0440\u043d\u0435\u0442,1\u0421: \u041f\u0440\u0435\u0434\u043f\u0440\u0438\u044f\u0442\u0438\u0435 8,\u0422\u0435\u043b\u0435\u0444\u043e\u043d\u043d\u044b\u0435 \u043f\u0435\u0440\u0435\u0433\u043e\u0432\u043e\u0440\u044b,\u0417\u0430\u043a\u043b\u044e\u0447\u0435\u043d\u0438\u0435 \u0434\u043e\u0433\u043e\u0432\u043e\u0440\u043e\u0432,\u0421\u043e\u0441\u0442\u0430\u0432\u043b\u0435\u043d\u0438\u0435 \u0434\u043e\u0433\u043e\u0432\u043e\u0440\u043e\u0432,MS PowerPoint,\u0422\u0435\u0441\u0442\u0438\u0440\u043e\u0432\u0430\u043d\u0438\u0435,Postman,Selenium IDE,JOGL,Atlassian Jira,Fiddler,TestPalm,Android Studio,HTML,CSS,MySQL,JavaScript,SOAP", "\u0411\u0430\u0437\u043e\u0432\u044b\u0435 \u0437\u043d\u0430\u043d\u0438\u044f Java,\u041e\u0441\u043d\u043e\u0432\u044b \u041e\u041e\u041f,\u0420\u0430\u0431\u043e\u0442\u0430 \u0441 Git, Maven, Tomcat, Hibernate, PostgreSQL", "\u0411\u0430\u0437\u043e\u0432\u044b\u0435 \u0437\u043d\u0430\u043d\u0438\u044f sql (\u043d\u0430 \u0443\u0440\u043e\u0432\u043d\u0435 \u043d\u0430\u043f\u0438\u0441\u0430\u043d\u0438\u044f \u043f\u0440\u043e\u0441\u0442\u044b\u0445 \u0437\u0430\u043f\u0440\u043e\u0441\u043e\u0432),Java Core,Git", "\u0412\u0435\u0431-\u043f\u0440\u043e\u0433\u0440\u0430\u043c\u043c\u0438\u0440\u043e\u0432\u0430\u043d\u0438\u0435,Python,JavaScript,Linux,Git", "\u0412\u0435\u0440\u0441\u0442\u043a\u0430,\u0412\u0435\u0431-\u0434\u0438\u0437\u0430\u0439\u043d,\u0412\u0435\u0431-\u043f\u0440\u043e\u0433\u0440\u0430\u043c\u043c\u0438\u0440\u043e\u0432\u0430\u043d\u0438\u0435,\u0413\u0440\u0430\u0444\u0438\u0447\u0435\u0441\u043a\u0438\u0439 \u0434\u0438\u0437\u0430\u0439\u043d,\u0444\u0440\u043e\u043d\u0442\u044d\u043d\u0434 \u0440\u0430\u0437\u0440\u0430\u0431\u043e\u0442\u043a\u0430", "\u0412\u043b\u0430\u0434\u0435\u043d\u0438\u0435 \u041f\u041a, \u0441\u0440\u0435\u0434\u043d\u0435\u0435 \u0437\u043d\u0430\u043d\u0438\u0435 \u0430\u043d\u0433\u043b\u0438\u0439\u0441\u043a\u043e\u0433\u043e", "\u0412\u043d\u0438\u043c\u0430\u0442\u0435\u043b\u044c\u043d\u043e\u0441\u0442\u044c, \u0441\u0442\u0440\u0435\u0441\u0441\u043e\u0443\u0441\u0442\u043e\u0439\u0447\u0438\u0432\u043e\u0441\u0442\u044c, \u043f\u0443\u043d\u043a\u0442\u0443\u0430\u043b\u044c\u043d\u043e\u0441\u0442\u044c.", "\u0413\u0440\u0430\u043c\u043e\u0442\u043d\u0430\u044f \u0440\u0435\u0447\u044c,\u043f\u0440\u0438\u044f\u0442\u043d\u044b\u0439 \u0433\u043e\u043b\u043e\u0441,\u0413\u0440\u0430\u043c\u043e\u0442\u043d\u043e\u0441\u0442\u044c,\u0414\u0435\u043b\u043e\u0432\u0430\u044f \u043f\u0435\u0440\u0435\u043f\u0438\u0441\u043a\u0430,\u041a\u0440\u0435\u0430\u0442\u0438\u0432\u043d\u043e\u0441\u0442\u044c,\u0422\u0435\u043b\u0435\u0444\u043e\u043d\u043d\u044b\u0435 \u043f\u0435\u0440\u0435\u0433\u043e\u0432\u043e\u0440\u044b,\u041e\u0440\u0438\u0435\u043d\u0442\u0430\u0446\u0438\u044f \u043d\u0430 \u0440\u0435\u0437\u0443\u043b\u044c\u0442\u0430\u0442,\u041d\u0430\u043f\u0438\u0441\u0430\u043d\u0438\u0435 \u0442\u0435\u043a\u0441\u0442\u043e\u0432,\u0420\u0430\u0431\u043e\u0442\u0430 \u0441 \u0431\u043e\u043b\u044c\u0448\u0438\u043c \u043e\u0431\u044a\u0435\u043c\u043e\u043c \u0438\u043d\u0444\u043e\u0440\u043c\u0430\u0446\u0438\u0438", "\u0414\u0435\u043b\u043e\u0432\u043e\u0435 \u043e\u0431\u0449\u0435\u043d\u0438\u0435,\u0414\u0435\u043b\u043e\u0432\u0430\u044f \u043f\u0435\u0440\u0435\u043f\u0438\u0441\u043a\u0430,\u0420\u0430\u0431\u043e\u0442\u0430 \u0432 \u043a\u043e\u043c\u0430\u043d\u0434\u0435,\u0413\u0440\u0430\u043c\u043e\u0442\u043d\u0430\u044f \u0440\u0435\u0447\u044c,\u041d\u0430\u0432\u044b\u043a\u0438 \u043c\u0435\u0436\u043b\u0438\u0447\u043d\u043e\u0441\u0442\u043d\u043e\u0433\u043e \u043e\u0431\u0449\u0435\u043d\u0438\u044f,\u041a\u043e\u0440\u043f\u043e\u0440\u0430\u0442\u0438\u0432\u043d\u0430\u044f \u044d\u0442\u0438\u043a\u0430,\u0412\u0435\u0434\u0435\u043d\u0438\u0435 \u043f\u0435\u0440\u0435\u0433\u043e\u0432\u043e\u0440\u043e\u0432,\u041f\u043e\u043b\u044c\u0437\u043e\u0432\u0430\u0442\u0435\u043b\u044c \u041f\u041a,\u0423\u043f\u0440\u0430\u0432\u043b\u0435\u043d\u0438\u0435 \u043f\u0440\u043e\u0435\u043a\u0442\u0430\u043c\u0438,\u0414\u0435\u043b\u043e\u0432\u0430\u044f \u043a\u043e\u043c\u043c\u0443\u043d\u0438\u043a\u0430\u0446\u0438\u044f,\u041b\u0438\u0434\u0435\u0440\u0441\u043a\u0438\u0435 \u043a\u0430\u0447\u0435\u0441\u0442\u0432\u0430,HTML,CSS,Java,Intellij IDEA,Java SE,Apache Maven", "\u0414\u0435\u043b\u043e\u043f\u0440\u043e\u0438\u0437\u0432\u043e\u0434\u0441\u0442\u0432\u043e,\u041f\u043e\u043b\u044c\u0437\u043e\u0432\u0430\u0442\u0435\u043b\u044c \u041f\u041a,\u0413\u0440\u0430\u043c\u043e\u0442\u043d\u0430\u044f \u0440\u0435\u0447\u044c,\u0420\u0430\u0431\u043e\u0442\u0430 \u0441 \u043e\u0440\u0433\u0442\u0435\u0445\u043d\u0438\u043a\u043e\u0439,\u0420\u0430\u0431\u043e\u0442\u0430 \u0432 \u043a\u043e\u043c\u0430\u043d\u0434\u0435,\u0422\u0435\u0441\u0442\u0438\u0440\u043e\u0432\u0430\u043d\u0438\u0435,\u0420\u0430\u0437\u0440\u0430\u0431\u043e\u0442\u043a\u0430 \u041f\u041e,\u0421#,Java,JavaScript,HTML,CSS", "\u0417\u0430\u0438\u043d\u0442\u0435\u0440\u0435\u0441\u043e\u0432\u0430\u043d\u043d\u043e\u0441\u0442\u044c \u0432 \u0440\u0435\u0437\u0443\u043b\u044c\u0442\u0430\u0442\u0435,\u0423\u043c\u0435\u043d\u0438\u0435 \u0440\u0430\u0431\u043e\u0442\u0430\u0442\u044c \u0432 \u043a\u043e\u043c\u0430\u043d\u0434\u0435,\u0410\u043d\u0433\u043b\u0438\u0439\u0441\u043a\u0438\u0439 \u044f\u0437\u044b\u043a,\u0417\u043d\u0430\u043d\u0438\u0435 C#,\u0417\u043d\u0430\u043d\u0438\u0435 \u0441\u0440\u0435\u0434\u044b Visual Studio,\u0420\u0430\u0431\u043e\u0442\u0430 \u0441 XML \u0438 JSON,\u041f\u043e\u043d\u0438\u043c\u0430\u043d\u0438\u0435 \u043f\u0440\u0438\u043d\u0446\u0438\u043f\u043e\u0432 \u041e\u041e\u041f,\u0420\u0430\u0431\u043e\u0442\u0430 \u0441 WPF,Ableton Live,Waves Audio,Unity", "\u0417\u043d\u0430\u043d\u0438\u0435 \u041a\u0414,\u0417\u043d\u0430\u043d\u0438\u0435 \u043e\u0444\u0438\u0441\u043d\u044b\u0445 \u043f\u0440\u043e\u0433\u0440\u0430\u043c\u043c,\u041c\u043d\u043e\u0433\u043e\u0444\u0443\u043d\u043a\u0446\u0438\u043e\u043d\u0430\u043b\u044c\u043d\u043e\u0441\u0442\u044c,\u0423\u043c\u0435\u043d\u0438\u0435 \u043c\u043e\u0442\u0438\u0432\u0438\u0440\u043e\u0432\u0430\u0442\u044c \u043f\u0435\u0440\u0441\u043e\u043d\u0430\u043b,\u0417\u043d\u0430\u043d\u0438\u0435 \u0411\u0414,\u0417\u043d\u0430\u043d\u0438\u0435 \u044f\u0437\u044b\u043a\u0430 SQL,\u0417\u043d\u0430\u043d\u0438\u0435 Python,\u0417\u043d\u0430\u043d\u0438\u0435 Ubuntu", "\u0417\u043d\u0430\u043d\u0438\u0435 \u0442\u0435\u0445\u043d\u0438\u0447\u0435\u0441\u043a\u043e\u0433\u043e \u0430\u043d\u0433\u043b\u0438\u0439\u0441\u043a\u043e\u0433\u043e \u044f\u0437\u044b\u043a\u0430,\u0417\u043d\u0430\u043d\u0438\u0435 \u043e\u0441\u043d\u043e\u0432 \u044f\u0437\u044b\u043a\u0430 \u043f\u0440\u043e\u0433\u0440\u0430\u043c\u043c\u0438\u0440\u043e\u0432\u0430\u043d\u0438\u044f Python,\u0423\u0433\u043b\u0443\u0431\u043b\u0451\u043d\u043d\u044b\u0435 \u0437\u043d\u0430\u043d\u0438\u044f \u044f\u0437\u044b\u043a\u0430 \u043f\u0440\u043e\u0433\u0440\u0430\u043c\u043c\u0438\u0440\u043e\u0432\u0430\u043d\u0438\u044f Java,\u041e\u043f\u044b\u0442 \u0440\u0430\u0431\u043e\u0442\u044b \u0432 \u0441\u0440\u0435\u0434\u0435 \u0440\u0430\u0437\u0440\u0430\u0431\u043e\u0442\u043a\u0438 1\u0421 \u0423\u043f\u0440\u0430\u0432\u043b\u0435\u043d\u0438\u0435 \u0442\u043e\u0440\u0433\u043e\u0432\u043b\u0435\u0439 10.2,\u0417\u043d\u0430\u043d\u0438\u0435 \u043e\u0441\u043d\u043e\u0432 web- \u0442\u0435\u0445\u043d\u043e\u043b\u043e\u0433\u0438\u0439. \u0424\u0440\u0435\u0439\u043c\u0432\u043e\u0440\u043a Django.,\u041f\u043e\u043d\u0438\u043c\u0430\u043d\u0438\u0435 \u043f\u0440\u0438\u043d\u0446\u0438\u043f\u043e\u0432 \u041e\u041e\u041f,\u041e\u043f\u044b\u0442 \u0440\u0430\u0431\u043e\u0442\u044b \u0441 \u043f\u0440\u043e\u0433\u0440\u0430\u043c\u043c\u043e\u0439 Anylogic,\u041e\u043f\u044b\u0442 \u0440\u0430\u0431\u043e\u0442\u044b \u0432 \u0441\u0440\u0435\u0434\u0435 Android-\u0440\u0430\u0437\u0440\u0430\u0431\u043e\u0442\u043a\u0438 Android Studio", "\u0417\u043d\u0430\u043d\u0438\u0435 \u044f\u0437\u044b\u043a\u043e\u0432 \u043f\u0440\u043e\u0433\u0440\u0430\u043c\u043c\u0438\u0440\u043e\u0432\u0430\u043d\u0438\u044f,HTML/CSS,JavaScript,PHP,Joomla CMS,CMS Wordpress,1\u0421-\u0411\u0438\u0442\u0440\u0438\u043a\u0441,C++,C#,Delphi,Pascal,Python,\u0438 \u0434\u0440.", "\u0418\u0441\u043f\u043e\u043b\u043d\u0438\u0442\u0435\u043b\u044c\u043d\u043e\u0441\u0442\u044c", "\u0418\u0441\u043f\u043e\u043b\u043d\u0438\u0442\u0435\u043b\u044c\u043d\u043e\u0441\u0442\u044c,C#,Microsoft Visual Studio,\u041e\u041e\u041f,MS SQL Server,HTML,CSS,JavaScript,Maple,Java,Python,MySQL", "\u0418\u0441\u043f\u043e\u043b\u043d\u0438\u0442\u0435\u043b\u044c\u043d\u043e\u0441\u0442\u044c,C/C++,\u041e\u041e\u041f,Git,Linux,Python,Assembler", "\u0418\u0441\u043f\u043e\u043b\u043d\u0438\u0442\u0435\u043b\u044c\u043d\u043e\u0441\u0442\u044c,Java Applets,Spring Framework,Java,Apache Maven,Java Servlets,JDBC,Hibernate ORM,Git,MySQL,PostgreSQL,Spring Security", "\u0418\u0441\u043f\u043e\u043b\u043d\u0438\u0442\u0435\u043b\u044c\u043d\u043e\u0441\u0442\u044c,Java SE,SQL,Git,\u041e\u041e\u041f,\u041a\u043e\u043c\u043c\u0443\u043d\u0438\u043a\u0430\u0431\u0435\u043b\u044c\u043d\u043e\u0441\u0442\u044c,Oracle Pl/SQL,Git Bash,Intellij IDEA,GitHub,Apache Maven,JUnit,SQL Developer,Java EE,Eclipse,Spring Framework", "\u0418\u0441\u043f\u043e\u043b\u043d\u0438\u0442\u0435\u043b\u044c\u043d\u043e\u0441\u0442\u044c,JavaCore,Git,C++,1\u0421 \u043f\u0440\u043e\u0433\u0440\u0430\u043c\u043c\u0438\u0440\u043e\u0432\u0430\u043d\u0438\u0435,\u041e\u041e\u041f", "\u0418\u0441\u043f\u043e\u043b\u043d\u0438\u0442\u0435\u043b\u044c\u043d\u043e\u0441\u0442\u044c,JavaScript,HTML,CSS,Adobe Photoshop,MS PowerPoint,Adobe Illustrator,\u0410\u043d\u0433\u043b\u0438\u0439\u0441\u043a\u0438\u0439 \u044f\u0437\u044b\u043a,\u0423\u043f\u0440\u0430\u0432\u043b\u0435\u043d\u0438\u0435 \u043f\u0440\u043e\u0435\u043a\u0442\u0430\u043c\u0438,1\u0421: \u041f\u0440\u0435\u0434\u043f\u0440\u0438\u044f\u0442\u0438\u0435 8,HTML5,CSS3,\u0418\u0441\u043f\u0430\u043d\u0441\u043a\u0438\u0439 \u044f\u0437\u044b\u043a,\u041a\u043e\u043c\u043c\u0443\u043d\u0438\u043a\u0430\u0431\u0435\u043b\u044c\u043d\u043e\u0441\u0442\u044c,\u0421\u0442\u0440\u0435\u0441\u0441\u043e\u0443\u0441\u0442\u043e\u0439\u0447\u0438\u0432\u043e\u0441\u0442\u044c,PHP,PHP5", "\u0418\u0441\u043f\u043e\u043b\u043d\u0438\u0442\u0435\u043b\u044c\u043d\u043e\u0441\u0442\u044c,Moodle,Apple MacOS,Python Programming,MS Office,1\u0421: \u041f\u0440\u0435\u0434\u043f\u0440\u0438\u044f\u0442\u0438\u0435 8,CSS,MS PowerPoint,MS Outlook,MySQL,HTML5,SQL,\u0410\u043d\u0433\u043b\u0438\u0439\u0441\u043a\u0438\u0439 \u044f\u0437\u044b\u043a,Linux,MS Visio,\u041f\u0440\u043e\u0433\u0440\u0430\u043c\u043c\u0438\u0440\u043e\u0432\u0430\u043d\u0438\u0435 \u043d\u0430 Python 3.5 \u0438 C/C++/\u0421#,\u041e\u0440\u0438\u0435\u043d\u0442\u0430\u0446\u0438\u044f \u0432 \u041a\u043e\u043d\u0441\u0443\u043b\u044c\u0442\u0430\u043d\u0442\u041f\u043b\u044e\u0441,iOS \u0440\u0430\u0437\u0440\u0430\u0431\u043e\u0442\u043a\u0430", "\u0418\u0441\u043f\u043e\u043b\u043d\u0438\u0442\u0435\u043b\u044c\u043d\u043e\u0441\u0442\u044c,SQL,Java,PostgreSQL,java 8,lombok,Git", "\u0418\u0441\u043f\u043e\u043b\u043d\u0438\u0442\u0435\u043b\u044c\u043d\u043e\u0441\u0442\u044c,\u0410\u043a\u0442\u0438\u0432\u043d\u043e\u0435 \u0446\u0435\u043b\u0435\u043f\u043e\u043b\u0430\u0433\u0430\u043d\u0438\u0435,\u0421\u0442\u0440\u0430\u0442\u0435\u0433\u0438\u0447\u0435\u0441\u043a\u043e\u0435 \u043c\u044b\u0448\u043b\u0435\u043d\u0438\u0435,\u041e\u0440\u0438\u0435\u043d\u0442\u0430\u0446\u0438\u044f \u043d\u0430 \u0440\u0435\u0437\u0443\u043b\u044c\u0442\u0430\u0442", "\u0418\u0441\u043f\u043e\u043b\u043d\u0438\u0442\u0435\u043b\u044c\u043d\u043e\u0441\u0442\u044c,\u041a\u043e\u043c\u043c\u0443\u043d\u0438\u043a\u0430\u0431\u0435\u043b\u044c\u043d\u043e\u0441\u0442\u044c,\u0410\u043d\u0430\u043b\u0438\u0442\u0438\u0447\u0435\u0441\u043a\u0438\u0439 \u0441\u043a\u043b\u0430\u0434 \u0443\u043c\u0430,\u0421\u0442\u0440\u0435\u0441\u0441\u043e\u0443\u0441\u0442\u043e\u0439\u0447\u0438\u0432\u043e\u0441\u0442\u044c", "\u0418\u0441\u043f\u043e\u043b\u043d\u0438\u0442\u0435\u043b\u044c\u043d\u043e\u0441\u0442\u044c,\u041a\u043e\u0440\u043f\u043e\u0440\u0430\u0442\u0438\u0432\u043d\u044b\u0435 \u0444\u0438\u043d\u0430\u043d\u0441\u044b,1\u0421 \u043f\u0440\u043e\u0433\u0440\u0430\u043c\u043c\u0438\u0440\u043e\u0432\u0430\u043d\u0438\u0435,\u0424\u0438\u043d\u0430\u043d\u0441\u043e\u0432\u044b\u0439 \u0430\u043d\u0430\u043b\u0438\u0437", "\u0418\u0441\u043f\u043e\u043b\u043d\u0438\u0442\u0435\u043b\u044c\u043d\u043e\u0441\u0442\u044c,\u041a\u0440\u0435\u0430\u0442\u0438\u0432\u043d\u043e\u0441\u0442\u044c,\u041e\u0440\u0438\u0435\u043d\u0442\u0430\u0446\u0438\u044f \u043d\u0430 \u0440\u0435\u0437\u0443\u043b\u044c\u0442\u0430\u0442,\u0426\u0435\u043b\u0435\u0443\u0441\u0442\u0440\u0435\u043c\u043b\u0435\u043d\u043d\u043e\u0441\u0442\u044c,\u041e\u0442\u0432\u0435\u0442\u0441\u0442\u0432\u0435\u043d\u043d\u043e\u0441\u0442\u044c", "\u0418\u0441\u043f\u043e\u043b\u043d\u0438\u0442\u0435\u043b\u044c\u043d\u043e\u0441\u0442\u044c,\u041c\u043e\u0442\u0438\u0432\u0430\u0446\u0438\u044f,\u0412\u0435\u0434\u0435\u043d\u0438\u0435 \u043f\u0435\u0440\u0435\u0433\u043e\u0432\u043e\u0440\u043e\u0432,\u0420\u0430\u0431\u043e\u0442\u0430 \u0432 \u043a\u043e\u043c\u0430\u043d\u0434\u0435,\u041e\u0440\u0433\u0430\u043d\u0438\u0437\u0430\u0442\u043e\u0440\u0441\u043a\u0438\u0435 \u043d\u0430\u0432\u044b\u043a\u0438,\u0423\u043f\u0440\u0430\u0432\u043b\u0435\u043d\u0438\u0435 \u043f\u0435\u0440\u0441\u043e\u043d\u0430\u043b\u043e\u043c,MS Office,MS Excel,SAP MM", "\u0418\u0441\u043f\u043e\u043b\u043d\u0438\u0442\u0435\u043b\u044c\u043d\u043e\u0441\u0442\u044c,\u041e\u0442\u0432\u0435\u0442\u0441\u0442\u0432\u0435\u043d\u043d\u043e\u0441\u0442\u044c,Android,Java,Kotlin,SQLite,Android Jetpack,Jsoup,Retrofit,Room,MVVM, MVP, MVP x Moxy, MVC,Kotlin Coroutines,JSON,Git", "\u0418\u0441\u043f\u043e\u043b\u043d\u0438\u0442\u0435\u043b\u044c\u043d\u043e\u0441\u0442\u044c,\u041e\u0442\u0432\u0435\u0442\u0441\u0442\u0432\u0435\u043d\u043d\u043e\u0441\u0442\u044c,\u041a\u0440\u0435\u0430\u0442\u0438\u0432\u043d\u043e\u0441\u0442\u044c,\u0413\u0440\u0430\u043c\u043e\u0442\u043d\u0430\u044f \u0440\u0435\u0447\u044c,\u0420\u0430\u0431\u043e\u0442\u0430 \u0432 \u043a\u043e\u043c\u0430\u043d\u0434\u0435,\u041e\u0431\u0443\u0447\u0435\u043d\u0438\u0435 \u0438 \u0440\u0430\u0437\u0432\u0438\u0442\u0438\u0435,\u041e\u0440\u0433\u0430\u043d\u0438\u0437\u0430\u0442\u043e\u0440\u0441\u043a\u0438\u0435 \u043d\u0430\u0432\u044b\u043a\u0438", "\u0418\u0441\u043f\u043e\u043b\u043d\u0438\u0442\u0435\u043b\u044c\u043d\u043e\u0441\u0442\u044c,\u041e\u0442\u0432\u0435\u0442\u0441\u0442\u0432\u0435\u043d\u043d\u043e\u0441\u0442\u044c,\u041e\u0431\u0443\u0447\u0430\u0435\u043c\u043e\u0441\u0442\u044c,\u0426\u0435\u043b\u0435\u0443\u0441\u0442\u0440\u0435\u043c\u043b\u0435\u043d\u043d\u043e\u0441\u0442\u044c,\u0420\u0430\u0431\u043e\u0442\u0430 \u0432 \u043a\u043e\u043c\u0430\u043d\u0434\u0435,\u0420\u0430\u0431\u043e\u0442\u0430 \u0441 \u0431\u043e\u043b\u044c\u0448\u0438\u043c \u043e\u0431\u044a\u0435\u043c\u043e\u043c \u0438\u043d\u0444\u043e\u0440\u043c\u0430\u0446\u0438\u0438,\u041e\u0440\u0438\u0435\u043d\u0442\u0430\u0446\u0438\u044f \u043d\u0430 \u0440\u0435\u0437\u0443\u043b\u044c\u0442\u0430\u0442,\u041e\u0440\u0433\u0430\u043d\u0438\u0437\u0430\u0442\u043e\u0440\u0441\u043a\u0438\u0435 \u043d\u0430\u0432\u044b\u043a\u0438,\u0412\u043d\u0438\u043c\u0430\u0442\u0435\u043b\u044c\u043d\u043e\u0441\u0442\u044c \u043a \u0434\u0435\u0442\u0430\u043b\u044f\u043c,Java,Spring Framework,JavaScript,PostgreSQL,MySQL,Git,\u0420\u0430\u0431\u043e\u0442\u0430 \u0441 \u0431\u0430\u0437\u0430\u043c\u0438 \u0434\u0430\u043d\u043d\u044b\u0445,HTML5,CSS3,Apache Maven,HTTP,JUnit,Hibernate ORM,JPA,\u0410\u043d\u0433\u043b\u0438\u0439\u0441\u043a\u0438\u0439 \u044f\u0437\u044b\u043a,Design Patterns", "\u0418\u0441\u043f\u043e\u043b\u043d\u0438\u0442\u0435\u043b\u044c\u043d\u043e\u0441\u0442\u044c,\u041e\u0442\u0432\u0435\u0442\u0441\u0442\u0432\u0435\u043d\u043d\u043e\u0441\u0442\u044c,\u0423\u0441\u0438\u0434\u0447\u0438\u0432\u043e\u0441\u0442\u044c,\u0412\u044b\u0441\u043e\u043a\u0430\u044f \u043e\u0431\u0443\u0447\u0430\u0435\u043c\u043e\u043c\u0443", "\u0418\u0441\u043f\u043e\u043b\u043d\u0438\u0442\u0435\u043b\u044c\u043d\u043e\u0441\u0442\u044c,\u0421\u0442\u0440\u0435\u0441\u0441\u043e\u0443\u0441\u0442\u043e\u0439\u0447\u0438\u0432\u043e\u0441\u0442\u044c,\u0420\u0430\u0431\u043e\u0442\u0430 \u0432 \u043a\u043e\u043c\u0430\u043d\u0434\u0435,\u0412\u044b\u043d\u043e\u0441\u043b\u0438\u0432\u043e\u0441\u0442\u044c,Python,PyCharm,HTML/CSS,1C,\u041e\u043d\u043e\u0432\u044b \u0442\u0435\u0441\u0442\u0438\u0440\u043e\u0432\u0430\u043d\u0438\u044f \u041f\u041e", "\u041a\u0430\u0447\u0435\u0441\u0442\u0432\u0430 \u043c\u043e\u0435\u0433\u043e \u0445\u0430\u0440\u0430\u043a\u0442\u0435\u0440\u0430, \u043d\u0430 \u043a\u043e\u0442\u043e\u0440\u044b\u0435 \u0445\u043e\u0447\u0435\u0442\u0441\u044f \u043e\u0431\u0440\u0430\u0442\u0438\u0442\u044c \u0412\u0430\u0448\u0435 \u0432\u043d\u0438\u043c\u0430\u043d\u0438\u0435: \u0430\u043a\u0442\u0438\u0432\u043d\u043e\u0441\u0442\u044c, \u0432\u043d\u0438\u043c\u0430\u0442\u0435\u043b\u044c\u043d\u043e\u0441\u0442", "\u041a\u043e\u043c\u043c\u0443\u043d\u0438\u043a\u0430\u0431\u0435\u043b\u044c\u043d\u043e\u0441\u0442\u044c,\u041e\u0442\u0432\u0435\u0442\u0441\u0442\u0432\u0435\u043d\u043d\u043e\u0441\u0442\u044c,\u0421\u0442\u0440\u0435\u043c\u043b\u0435\u043d\u0438\u0435 \u043a \u043e\u0431\u0443\u0447\u0435\u043d\u0438\u044e", "\u041a\u043e\u043c\u043f\u0430\u0441-3D,Solid Works,\u041f\u043e\u043b\u044c\u0437\u043e\u0432\u0430\u0442\u0435\u043b\u044c \u041f\u041a,Siemens NX", "\u041a\u043e\u043d\u0441\u0443\u043b\u044c\u0442\u0438\u0440\u043e\u0432\u0430\u043d\u0438\u0435 \u043a\u043b\u0438\u0435\u043d\u0442\u043e\u0432,\u0417\u043d\u0430\u043d\u0438\u0435 \u0443\u0441\u0442\u0440\u043e\u0439\u0441\u0442\u0432\u0430 \u0430\u0432\u0442\u043e\u043c\u043e\u0431\u0438\u043b\u044f,\u041f\u043e\u043b\u044c\u0437\u043e\u0432\u0430\u0442\u0435\u043b\u044c \u041f\u041a,\u0412\u043e\u0434\u0438\u0442\u0435\u043b\u044c\u0441\u043a\u043e\u0435 \u0443\u0434\u043e\u0441\u0442\u043e\u0432\u0435\u0440\u0435\u043d\u0438\u0435 \u043a\u0430\u0442\u0435\u0433\u043e\u0440\u0438\u0438 B,1\u0421: \u0421\u043a\u043b\u0430\u0434,\u0420\u0430\u0431\u043e\u0442\u0430 \u0441 \u0431\u0430\u0437\u0430\u043c\u0438 \u0434\u0430\u043d\u043d\u044b\u0445,\u0420\u0430\u0431\u043e\u0442\u0430 \u0432 \u043a\u043e\u043c\u0430\u043d\u0434\u0435,\u0417\u043d\u0430\u043d\u0438\u0435 1\u0421,